tree
version=v4
num_class=1
num_tree_per_iteration=1
label_index=0
max_feature_idx=28
objective=binary sigmoid:1
feature_names=gender SeniorCitizen Partner Dependents tenure PhoneService MultipleLines OnlineSecurity OnlineBackup DeviceProtection TechSupport StreamingTV StreamingMovies PaperlessBilling MonthlyCharges TotalCharges InternetService_DSL InternetService_Fiber_optic InternetService_No Contract_Month-to-month Contract_One_year Contract_Two_year PaymentMethod_Bank_transfer_(automatic) PaymentMethod_Credit_card_(automatic) PaymentMethod_Electronic_check PaymentMethod_Mailed_check ChargesPerMonth IsLongTenure HighMonthlyCharge
feature_infos=[0:1] [0:1] [0:1] [0:1] [0:1] [0:1] [0:1] [0:1] [0:1] [0:1] [0:1] [0:1] [0:1] [0:1] [0.0014925373134328235:0.99999999999999989] [5.7696745903528489e-06:0.99999999999999989] [0:1] [0:1] [0:1] [0:1] [0:1] [0:1] [0:1] [0:1] [0:1] [0:1] [0.00017407485218644009:1.0000000000000002] [0:1] [0:1]
tree_sizes=3397 3453 3438 3443 3459 3439 3452 3440 3454 3469 3467 3469 3444 3466 3431 3454 3439 3431 3456 3479 3461 3475 3449 3468 3438 3474

Tree=0
num_leaves=31
num_cat=0
split_feature=19 17 4 4 17 14 20 4 15 26 15 12 24 26 20 12 26 24 14 26 13 14 3 3 4 15 14 14 4 26
split_gain=2247.35 351.422 152.933 146.461 134.251 67.1163 59.3628 41.1858 39.627 32.8226 43.733 27.0358 24.6471 21.1235 19.374 28.9657 15.461 22.398 14.4479 14.3866 13.4039 12.5834 12.3599 11.5393 11.2587 10.7511 20.9102 9.69862 9.59544 9.0284
threshold=1.0000000180025095e-35 1.0000000180025095e-35 0.22916666666666669 0.076388888888888909 1.0000000180025095e-35 0.025621890547263677 1.0000000180025095e-35 0.74305555555555569 0.00017597507500576951 0.0078717848674930251 0.14303311793214865 1.0000000180025095e-35 1.0000000180025095e-35 0.064348973472295665 1.0000000180025095e-35 1.0000000180025095e-35 0.062805271623063305 1.0000000180025095e-35 0.85348258706467672 0.02216110070187324 1.0000000180025095e-35 0.45547263681592043 1.0000000180025095e-35 1.0000000180025095e-35 0.68750000000000011 0.89706612047080558 0.87189054726368176 0.84676616915422898 0.020833333333333336 0.0050114049041087684
decision_type=2 2 2 2 2 2 2 2 2 2 2 2 2 2 2 2 2 2 2 2 2 2 2 2 2 2 2 2 2 2
left_child=4 3 28 5 14 8 25 16 20 -5 22 12 -8 -9 -1 -16 17 -4 -15 -7 -2 -12 -11 27 -25 26 -6 -13 -3 -10
right_child=1 2 7 9 6 19 11 13 29 10 21 23 -14 18 15 -17 -18 -19 -20 -21 -22 -23 -24 24 -26 -27 -28 -29 -30 -31
leaf_value=-1.0751090517624435 -0.96662390353550176 -0.84529198575426001 -0.94388966306588928 -1.0324740384059616 -1.057805004863495 -0.89396292403606437 -1.080350013260065 -1.0075974331584188 -1.0027699418256244 -0.94677538209408829 -0.998201533137965 -0.9871266821975111 -0.97230431238379078 -0.88758213391881835 -1.0650539620604553 -1.015893912809172 -0.88535872564384277 -0.90249151341946654 -0.98591361969948077 -0.94898962176222945 -0.8899994374033604 -1.0533409721135059 -0.98903100536057587 -0.96176736695380227 -1.032330222326509 -1.0815959417906442 -0.99036147294574839 -0.94295789843595335 -0.87307338887721431 -1.0736657135190095
leaf_weight=181.85551571846008 15.743350982666016 84.888087749481201 68.533174872398376 28.747031450271606 30.923099279403687 112.40618461370468 11.698039770126343 19.193632304668427 18.023828327655796 77.919310092926025 32.778490960597992 23.40620744228363 8.0666428208351135 8.3798713684082049 94.510152101516724 43.261447846889496 57.221345961093903 86.772226333618164 7.9169543981552115 18.636433720588684 11.318233013153076 13.901811003684996 25.310601830482483 8.4112985730171221 13.226351201534269 15.207451701164244 17.003712773323059 34.243947982788086 238.35462927818298 4.8741832375526419
leaf_count=908 56 172 226 128 148 299 60 79 73 260 131 90 29 20 460 183 145 240 30 62 28 66 98 29 59 78 66 112 572 25
internal_value=-0.957924 -0.912591 -0.888179 -0.951631 -1.04554 -0.919998 -1.00855 -0.918574 -0.970809 -0.984075 -0.974726 -0.984503 -1.03593 -0.970602 -1.0643 -1.04968 -0.910172 -0.920136 -0.930443 -0.901169 -0.930978 -1.01512 -0.95671 -0.971558 -1.00385 -1.04612 -1.0337 -0.959973 -0.865252 -1.01935
internal_weight=1412.73 930.919 571.26 359.659 481.814 181.002 162.187 248.017 49.9596 178.657 149.91 99.0525 19.7647 35.4905 319.627 137.772 212.527 155.305 16.2968 131.043 27.0616 46.6803 103.23 79.2878 21.6376 63.1343 47.9268 57.6502 323.243 22.898
internal_count=4932 2710 1484 1226 2222 543 671 740 182 683 555 379 89 129 1551 643 611 466 50 361 84 197 358 290 88 292 214 202 744 98
is_linear=0
shrinkage=1


Tree=1
num_leaves=31
num_cat=0
split_feature=19 17 17 15 15 16 20 15 12 15 16 24 15 14 20 12 25 15 14 15 7 14 14 13 15 15 14 14 13 15
split_gain=1907.08 276.592 125.058 113.88 82.2589 105.001 53.4506 49.8895 23.8502 23.016 26.9804 22.8261 21.0287 18.8291 18.6978 27.1686 16.1792 14.2987 12.3643 13.4318 11.5803 12.1659 11.4892 10.6585 10.6467 10.2805 19.2086 9.45691 8.97542 8.7094
threshold=1.0000000180025095e-35 1.0000000180025095e-35 1.0000000180025095e-35 0.18351892453265642 0.035898915301177024 1.0000000180025095e-35 1.0000000180025095e-35 0.0006981306254327254 1.0000000180025095e-35 0.14303311793214865 1.0000000180025095e-35 1.0000000180025095e-35 0.55887087468266794 0.76990049751243794 1.0000000180025095e-35 1.0000000180025095e-35 1.0000000180025095e-35 0.32987537502884839 0.3696517412935324 0.017306138933764138 1.0000000180025095e-35 0.8067164179104479 0.45547263681592043 1.0000000180025095e-35 0.25750057696745904 0.89706612047080558 0.87189054726368176 0.015671641791044789 1.0000000180025095e-35 0.011380683129471499
decision_type=2 2 2 2 2 2 2 2 2 2 2 2 2 2 2 2 2 2 2 2 2 2 2 2 2 2 2 2 2 2
left_child=2 4 14 29 5 7 25 23 11 10 27 -8 13 17 -1 -16 -12 -5 -7 -20 21 -14 24 -2 -11 26 -4 -6 -9 -3
right_child=1 3 6 12 9 18 8 28 -10 22 16 -13 20 -15 15 -17 -18 -19 19 -21 -22 -23 -24 -25 -26 -27 -28 -29 -30 -31
leaf_value=-0.05576987670895156 0.050638364678609021 0.15214813888157908 -0.038559773783754928 0.096860193108213519 0.033412918164876258 0.11198289397624568 -0.061147164794011138 0.013548264696244519 0.043323108959652662 -0.0027479449214812416 0.069244401703200856 0.042867167444003762 0.03482921615159517 0.11735364967937015 -0.04572067030909157 0.0020381286068849409 0.016993581065254802 0.058569678292496964 0.091798753130111557 -0.00038044290233858448 0.016420794279305585 0.10158376769810225 -0.034200773155072577 0.11064027168386728 0.054550798121891245 -0.062384029241427191 0.026044223374482284 -0.038683060310947738 -0.033987489821302751 0.12776383903798336
leaf_weight=176.93934291601181 21.498661085963249 91.506572768092155 30.342203319072723 73.227890104055405 6.4283988922834423 125.41742920875549 11.352483630180359 31.949394270777702 80.944423258304596 21.188293695449829 63.421068131923676 8.2382215559482574 14.324370339512827 74.53379388153553 92.408679872751236 43.304970368742943 20.625005960464478 48.024365708231926 9.6579732298850995 6.0969579815864554 14.261746317148207 16.319470852613449 13.670147538185118 14.65527233481407 11.894156396389006 14.749159365892409 17.223375141620636 10.744979128241537 13.207652837038038 272.50405611097813
leaf_count=908 74 172 148 202 24 318 60 130 290 90 203 29 53 182 460 183 80 157 26 25 55 43 66 36 41 78 66 51 62 620
internal_value=0.0555487 0.0955508 -0.026505 0.116431 0.0612322 0.0804409 0.00896768 0.0345024 0.0314254 0.0319714 0.0452669 -0.0172069 0.0889313 0.0962224 -0.0449671 -0.0305413 0.0568314 0.0823385 0.106436 0.0579345 0.0556299 0.0726243 0.00273669 0.0774184 0.0187021 -0.0271095 -0.0150093 -0.0110671 -0.000681918 0.134307
internal_weight=1450.66 975.158 475.503 604.702 370.455 222.483 162.85 81.311 100.535 147.972 101.219 19.5907 240.692 195.786 312.653 135.714 84.0461 121.252 141.172 15.7549 44.9056 30.6438 46.7526 36.1539 33.0825 62.3147 47.5656 17.1734 45.157 364.011
internal_count=4932 2710 2222 1484 1226 671 671 302 379 555 358 89 692 541 1551 643 283 359 369 51 151 96 197 110 131 292 214 75 192 792
is_linear=0
shrinkage=0.05


Tree=2
num_leaves=31
num_cat=0
split_feature=19 17 14 4 4 20 14 15 20 12 14 15 4 8 4 14 15 14 14 8 11 4 24 14 15 11 4 15 14 14
split_gain=1638.54 224.421 116.498 102.454 96.2522 47.9471 44.7199 31.0235 27.2966 30.2613 26.1867 37.3338 19.0017 12.9106 12.7815 18.5642 12.7585 13.0365 12.4217 11.7855 10.7272 10.1101 9.67666 10.4222 9.53662 9.00857 8.54824 7.35774 6.83288 6.74118
threshold=1.0000000180025095e-35 1.0000000180025095e-35 0.74900497512437825 0.076388888888888909 0.35416666666666669 1.0000000180025095e-35 0.025621890547263677 0.0020626586660512343 1.0000000180025095e-35 1.0000000180025095e-35 0.069900497512437834 0.14303311793214865 0.74305555555555569 1.0000000180025095e-35 0.11805555555555557 0.60671641791044795 0.89706612047080558 0.87189054726368176 0.56442786069651751 1.0000000180025095e-35 1.0000000180025095e-35 0.82638888888888895 1.0000000180025095e-35 0.65298507462686572 0.7907915993537965 1.0000000180025095e-35 0.90972222222222221 0.6253779136856682 0.020149253731343287 0.3696517412935324
decision_type=2 2 2 2 2 2 2 2 2 2 2 2 2 2 2 2 2 2 2 2 2 2 2 2 2 2 2 2 2 2
left_child=2 3 8 6 14 16 7 -2 -1 22 28 13 -6 -12 -3 18 17 -4 -16 -13 -7 -22 -10 -24 -23 27 -27 -14 -5 -8
right_child=1 4 5 10 12 20 29 -9 9 -11 11 19 25 -15 15 -17 -18 -19 -20 -21 21 24 23 -25 -26 26 -28 -29 -30 -31
leaf_value=-0.054915557356585709 0.066364313506320646 0.12738612587201875 -0.030816169358557646 0.010350562328123952 0.082894460078309112 -0.021564040664004407 0.10082040876038639 -0.015566743322267566 -0.048076965812579829 0.0059395517346465827 0.067594262361353671 -0.027852662613244695 0.036059655909846992 0.022341567677550449 0.093884877789560062 0.1150892160215715 -0.061289079331735934 0.024530903293814361 0.033426471925941059 0.02261128257071043 0.058253997834419015 -0.020955046421801751 -0.031938450878769217 0.044060035864776421 0.037552729835111348 0.036305674009545964 0.10505259821846209 -0.03514219462464694 -0.030454396042073062 0.059892415959019542
leaf_weight=177.69260837137699 35.779007434844971 248.51163440942764 24.13757486641407 26.252599731087685 151.30442157387733 6.3431788682937613 126.2107480019331 16.241330951452255 85.875233560800552 50.169094860553741 73.659276217222214 17.954183593392372 7.5098268240690214 22.097077563405037 25.901407435536385 154.45616371929646 14.291508615016935 17.427850663661957 15.20593975484371 28.64410412311554 43.845691546797752 9.1979466974735278 12.998076140880586 5.6492707133293143 21.519109040498734 17.781644612550739 6.4421030133962622 5.3104642927646637 15.414524629712103 17.476105943322182
leaf_count=938 109 489 118 108 413 28 307 73 442 208 227 83 27 81 63 341 78 66 49 113 144 41 64 19 76 62 15 25 71 54
internal_value=0.0516325 0.0874089 -0.0255636 0.0567505 0.105691 0.0131839 0.0818955 0.0408791 -0.0415133 -0.0258324 0.0296836 0.0398308 0.0749094 0.0575421 0.118537 0.106676 -0.0221573 -0.00746127 0.0729645 0.00288596 0.0376169 0.0429365 -0.0410415 -0.00758931 0.0197671 0.0408419 0.0582266 0.00579567 -0.00498779 0.0963254
internal_weight=1481.3 1012.15 469.147 379.729 632.424 136.763 195.707 52.0203 332.384 154.692 184.022 142.355 188.348 95.7564 444.075 195.564 55.8569 41.5654 41.1073 46.5983 80.9059 74.5627 104.523 18.6473 30.7171 37.044 24.2237 12.8203 41.6671 143.687
internal_count=4932 2710 2222 1226 1484 551 543 182 1671 733 683 504 542 308 942 453 262 184 112 196 289 261 525 83 117 129 77 52 179 361
is_linear=0
shrinkage=0.05


Tree=3
num_leaves=31
num_cat=0
split_feature=19 17 17 4 4 20 14 15 26 15 26 20 12 4 26 24 12 14 10 4 14 4 4 26 14 3 26 10 26 15
split_gain=1420.89 186.832 108.393 87.1617 79.3774 43.5111 37.318 27.0986 24.3035 28.8448 22.0618 17.4503 23.6841 15.6749 15.5212 11.6225 22.1799 11.0648 10.73 10.4375 15.8547 9.84347 9.47084 13.6194 14.8002 9.39533 9.10366 9.33172 8.48033 7.36641
threshold=1.0000000180025095e-35 1.0000000180025095e-35 1.0000000180025095e-35 0.076388888888888909 0.35416666666666669 1.0000000180025095e-35 0.025621890547263677 0.0020626586660512343 0.0078717848674930251 0.14303311793214865 0.052505630933006898 1.0000000180025095e-35 1.0000000180025095e-35 0.74305555555555569 0.064348973472295665 1.0000000180025095e-35 1.0000000180025095e-35 0.85348258706467672 1.0000000180025095e-35 0.020833333333333336 0.60671641791044795 0.60416666666666674 0.99305555555555569 0.067881790232142594 0.90522388059701508 1.0000000180025095e-35 0.062805271623063305 1.0000000180025095e-35 0.02216110070187324 0.37057754442649443
decision_type=2 2 2 2 2 2 2 2 2 2 2 2 2 2 2 2 2 2 2 2 2 2 2 2 2 2 2 2 2 2
left_child=2 3 11 6 19 22 7 -2 -5 25 -7 -1 -13 26 -15 16 -12 -16 -11 -3 -21 -17 23 -4 -25 -10 27 -6 -8 -14
right_child=1 4 5 8 13 10 28 -9 9 18 15 12 29 14 17 21 -18 -19 -20 20 -22 -23 -24 24 -26 -27 -28 -29 -30 -31
leaf_value=-0.053338981969801746 0.061493425516863875 0.12531022808146239 -0.038754711065875441 -0.014019132760886037 0.072380815287980169 -0.057227699957673919 0.093533014226074199 -0.014939852583477671 0.057574006188044792 0.019320781155921285 -0.057251987067199042 -0.043221661288250043 0.015914736677798132 0.0068515977238413316 0.10609750366645354 0.096147222509177621 0.03089428952578175 0.024222282428770527 -0.03010570195184056 0.08306663642156252 0.11000697334092249 0.037093695213709567 -0.054741232086762751 0.06153647697312823 -0.019537796199328702 0.022020810413963435 0.095136246782207709 0.026601771551450805 0.053244815867303036 -0.026788644810039897
leaf_weight=167.19781333208084 36.73561879992485 100.58340129256248 21.682414799928665 28.604314476251602 89.646312415599823 6.2254248708486548 128.25568726658821 16.121763318777084 84.129659920930862 31.2181566208601 7.2883762419223777 88.232617229223251 29.348420381546021 19.806510031223297 9.3816462755203265 10.167222470045088 51.516615688800812 8.4254856109619123 15.640279009938238 95.092196941375732 265.92803497612476 27.931814357638359 18.089988246560097 9.0548178702592867 11.86937779188156 26.661027356982231 51.498418435454369 14.886836171150206 20.437115758657455 14.118111699819563
leaf_count=908 109 172 110 128 245 33 299 73 260 123 40 460 118 79 20 26 183 30 74 228 542 97 98 30 54 98 119 49 62 65
internal_value=0.0482174 0.0805454 -0.0246607 0.0527841 0.0968626 0.00797548 0.0755407 0.0382435 0.0278599 0.0355305 0.0276706 -0.0425322 -0.0284764 0.0692311 0.0383888 0.0337047 0.0191111 0.0709717 0.00243453 0.108269 0.103174 0.0550368 -0.0253136 -0.0117356 0.0165251 0.0493366 0.0763424 0.0662225 0.0884217 0.00164154
internal_weight=1505.78 1043.05 462.723 387.804 655.249 163.826 201.55 52.8574 186.253 157.649 103.129 298.897 131.699 193.645 37.6136 96.904 58.805 17.8071 46.8584 461.604 361.02 38.099 60.6966 42.6066 20.9242 110.791 156.032 104.533 148.693 43.4665
internal_count=4932 2710 2222 1226 1484 671 543 182 683 555 379 1551 643 542 129 346 223 50 197 942 770 123 292 194 84 358 413 294 361 183
is_linear=0
shrinkage=0.05


Tree=4
num_leaves=31
num_cat=0
split_feature=19 17 17 15 15 16 21 15 12 24 21 12 15 16 24 8 8 14 10 14 3 15 14 13 15 14 14 13 14 15
split_gain=1242.24 158.859 100.963 66.4518 52.7467 63.8771 39.281 33.7983 17.2268 18.9317 16.8884 22.2028 15.0458 19.2596 14.2948 13.0947 10.972 16.37 9.72511 17.4774 9.40494 9.24119 15.4018 9.12692 8.67072 8.66055 8.55928 8.30941 7.40582 7.29381
threshold=1.0000000180025095e-35 1.0000000180025095e-35 1.0000000180025095e-35 0.18351892453265642 0.035898915301177024 1.0000000180025095e-35 1.0000000180025095e-35 0.0006981306254327254 1.0000000180025095e-35 1.0000000180025095e-35 1.0000000180025095e-35 1.0000000180025095e-35 0.14303311793214865 1.0000000180025095e-35 1.0000000180025095e-35 1.0000000180025095e-35 1.0000000180025095e-35 0.45945273631840799 1.0000000180025095e-35 0.80024875621890568 1.0000000180025095e-35 0.89706612047080558 0.87189054726368176 1.0000000180025095e-35 0.76352988691437818 0.015671641791044789 0.42014925373134338 1.0000000180025095e-35 0.84676616915422898 0.56401453957996783
decision_type=2 2 2 2 2 2 2 2 2 2 2 2 2 2 2 2 2 2 2 2 2 2 2 2 2 2 2 2 2 2
left_child=2 4 10 -3 5 7 8 23 9 -4 11 -1 13 25 18 -15 -14 -18 -5 -20 28 22 -8 -2 -22 -6 -7 -9 -10 -16
right_child=1 3 6 14 12 26 21 27 20 -11 -12 -13 16 15 29 -17 17 -19 19 -21 24 -23 -24 -25 -26 -27 -28 -29 -30 -31
leaf_value=-0.042049272216431427 0.038510884869609824 0.10226786582961644 -0.058692360613903684 0.061801765564083816 0.030637327456912729 0.085737369059977447 -0.035288864155688209 0.012363868600243718 0.022773458485911838 0.036373486768539978 -0.052202788981626141 0.0015356316011543312 -0.027435073650535755 0.055818108842183391 0.084739808027419872 0.0093928783391975246 0.045820809447498348 -0.032137910495009782 -0.026729883635776355 0.059258995012511119 0.025959435738388371 -0.059525444623229673 0.022683271559599101 0.090598733959688468 -0.03952838130959567 -0.038095644429982409 0.030067622006911893 -0.033477550393530488 0.059660587889195815 0.051187924574353408
leaf_weight=86.237128287553787 23.19075819849968 409.86414878070354 10.538608208298683 86.578323006629944 6.5719596594572094 147.34104266762733 28.726570248603821 32.224596485495567 24.859110236167908 8.6226024329662323 162.43825544416904 43.506351724267006 17.941385760903358 69.442856833338737 128.79673540592194 20.295266509056091 19.965924039483074 9.001340836286543 9.4536162465810794 12.797729238867758 16.831434994935993 13.491362810134886 17.672661244869232 16.042769908905029 6.045345574617385 10.627999469637869 8.9982678294181806 13.062013000249861 37.320741757750511 26.179395720362663
leaf_count=460 74 792 60 240 24 340 148 130 90 29 908 183 84 208 301 75 69 44 38 34 60 78 66 36 28 51 29 62 112 79
internal_value=0.0452175 0.0746925 -0.023798 0.0894869 0.0492671 0.0638787 0.007536 0.0283054 0.0260158 -0.0159822 -0.0413799 -0.0274959 0.0260943 0.0363729 0.0692995 0.0455929 0.00228758 0.0211649 0.0541813 0.0229327 0.0356108 -0.0244383 -0.0130901 0.0616566 0.0075137 -0.0113182 0.0827765 -0.00118776 0.0455864 0.0794686
internal_weight=1524.67 1068.38 456.29 673.67 394.706 240.859 164.108 84.5201 104.218 19.1612 292.182 129.743 153.847 106.938 263.806 89.7381 46.9087 28.9673 108.83 22.2513 85.0566 59.8906 46.3992 39.2335 22.8768 17.2 156.339 45.2866 62.1799 154.976
internal_count=4932 2710 2222 1484 1226 671 671 302 379 89 1551 643 555 358 692 283 197 113 312 72 290 292 214 110 88 75 369 192 202 380
is_linear=0
shrinkage=0.05


Tree=5
num_leaves=31
num_cat=0
split_feature=19 17 17 4 4 20 14 26 26 14 26 4 20 12 26 24 26 4 4 24 12 14 4 26 14 4 13 1 26 4
split_gain=1092.43 136.79 94.0158 65.5752 61.1873 35.5281 27.6719 22.029 19.9368 20.9615 19.0875 17.8453 16.3643 20.835 13.6238 10.6959 15.5475 10.3753 9.92777 9.73223 18.429 9.55007 8.75191 11.985 13.0236 8.38331 8.31372 8.20259 7.49809 7.35957
threshold=1.0000000180025095e-35 1.0000000180025095e-35 1.0000000180025095e-35 0.076388888888888909 0.21527777777777779 1.0000000180025095e-35 0.025621890547263677 0.00070530328041057682 0.0078717848674930251 0.47089552238805965 0.052505630933006898 0.74305555555555569 1.0000000180025095e-35 1.0000000180025095e-35 0.064348973472295665 1.0000000180025095e-35 0.063293273250354817 0.15972222222222224 0.31250000000000006 1.0000000180025095e-35 1.0000000180025095e-35 0.85348258706467672 0.99305555555555569 0.067881790232142594 0.90522388059701508 0.60416666666666674 1.0000000180025095e-35 1.0000000180025095e-35 0.0050114049041087684 0.96527777777777779
decision_type=2 2 2 2 2 2 2 2 2 2 2 2 2 2 2 2 2 2 2 2 2 2 2 2 2 2 2 2 2 2
left_child=2 3 12 6 -3 22 7 26 -5 18 -7 15 -1 -14 -13 16 -6 -11 -10 20 -12 -16 23 29 -25 -21 -2 -8 -9 -4
right_child=1 4 5 8 11 10 27 28 9 17 19 14 13 -15 21 -17 -18 -19 -20 25 -22 -23 -24 24 -26 -27 -28 -29 -30 -31
leaf_value=-0.051108956032863195 0.034241897587367676 0.096523253427199474 -0.052778716803376403 -0.013507939557223715 0.046632246063913363 -0.055946477103531712 0.069903265881712098 0.011371964785454922 0.047978649716319599 0.036889433116945494 -0.055262192888887521 0.0036307845343307396 -0.040909720267728711 0.0014595323498369931 0.094195089683090955 0.07933781325199063 0.096970320201372709 -0.036842119083607523 0.019360117292559421 0.085929262221918365 0.026853166550412134 0.02003429619263758 -0.052789171263377288 0.056827883800960516 -0.018822201743195564 0.032698173440463767 0.089610541097783408 0.10573451124258577 -0.053910510963806738 0.013075992100370262
leaf_weight=157.75981943309307 17.59714487195015 385.97762829065323 15.826022088527681 28.423777163028717 86.814188554883003 5.9758249372243872 132.24920174479485 18.574590861797336 91.841013073921204 5.8668974339962032 6.8454158455133429 20.359981641173363 84.285298436880112 43.537363365292549 9.8742086738348025 157.12879826128483 19.812891274690628 14.771178260445593 49.102340385317802 10.693624451756476 52.906090289354324 8.6944943368434888 17.127537667751312 9.3279345184564608 11.736958950757979 28.734326094388962 13.428789600729944 23.985174492001534 4.6646422743797293 5.0657736659049979
leaf_count=908 56 718 87 128 244 33 317 73 281 18 40 79 460 183 20 354 39 72 184 26 183 30 98 30 54 97 28 44 25 23
internal_value=0.0425354 0.06959 -0.0229708 0.0461328 0.0831381 0.00712483 0.0653351 0.033511 0.0246024 0.031379 0.0245 0.0657915 -0.0402608 -0.0265403 0.0327101 0.0705133 0.0568463 -0.0149148 0.0382503 0.0299071 0.0166085 0.0625243 -0.0236085 -0.0106284 0.0155078 0.0490275 0.0604127 0.0760734 -0.00320894 -0.0367142
internal_weight=1538.99 1089.17 449.822 400.505 688.662 164.24 210.5 54.2652 190.005 161.581 105.155 302.685 285.582 127.823 38.9287 263.756 106.627 20.6381 140.943 99.1795 59.7515 18.5687 59.0842 41.9567 21.0649 39.428 31.0259 156.234 23.2392 20.8918
internal_count=4932 2710 2222 1226 1484 671 543 182 683 555 379 766 1551 643 129 637 283 90 465 346 223 50 292 194 84 123 84 361 98 110
is_linear=0
shrinkage=0.05


Tree=6
num_leaves=31
num_cat=0
split_feature=21 20 24 12 14 15 15 13 14 18 15 26 10 24 26 15 11 14 15 7 26 14 14 14 24 3 15 14 26 15
split_gain=675.019 359.87 100.507 74.5997 38.0036 30.1072 28.6018 25.8981 17.2795 17.0626 16.1397 15.2464 14.7372 13.6407 14.6585 12.7819 14.1722 11.8276 11.4872 10.4798 9.92421 9.62979 8.03371 7.56349 6.65772 5.73824 10.952 5.2561 5.18338 7.75515
threshold=1.0000000180025095e-35 1.0000000180025095e-35 1.0000000180025095e-35 1.0000000180025095e-35 0.51119402985074636 0.010402723286406649 0.1663051003923379 1.0000000180025095e-35 0.73432835820895526 1.0000000180025095e-35 0.33463535656588972 0.0078717848674930251 1.0000000180025095e-35 1.0000000180025095e-35 0.053844969126197968 0.037021117009000702 1.0000000180025095e-35 0.81268656716417931 0.89706612047080558 1.0000000180025095e-35 0.068079067547432523 0.55298507462686575 0.6495024875621892 0.76741293532338317 1.0000000180025095e-35 1.0000000180025095e-35 0.76352988691437818 0.84676616915422898 0.034875278978656492 0.37057754442649443
decision_type=2 2 2 2 2 2 2 2 2 2 2 2 2 2 2 2 2 2 2 2 2 2 2 2 2 2 2 2 2 2
left_child=1 2 4 13 5 9 22 15 24 -1 21 -7 -8 -3 -15 -4 -17 28 20 -12 23 -9 -6 -10 -2 27 -27 -19 -5 -30
right_child=8 3 7 17 6 11 12 10 18 -11 19 -13 -14 14 -16 16 -18 25 -20 -21 -22 -23 -24 -25 -26 26 -28 -29 29 -31
leaf_value=0.073963757252828957 -0.05408984893126273 -0.044404241049891761 0.074536500633402683 -0.024657073272365413 0.066722950459458516 -0.015724703514228371 0.054077211011340255 0.07579241706190637 0.019449184898250396 0.033713178344327438 0.070769956915576485 0.026899863477494752 0.011344055318197451 -0.029611792564215429 0.0553059665710703 0.017923961378092556 0.064978377582364646 0.00807835322403146 -0.057951327309632289 0.022107377025102792 0.022815190292664447 0.095066672401837637 0.096946851662988859 -0.040631656380923337 -0.012212595912517991 0.039783183593811076 -0.039247990732297275 0.053308790631220862 0.033739879256125281 -0.0030241155456115897
leaf_weight=55.980796605348587 144.9867917150259 81.246386930346489 61.523728489875793 10.130182310938833 69.525869190692902 24.373015165328979 94.833845853805542 131.91344395279884 6.3369999378919628 55.90229220688343 66.673201814293861 123.76430797576904 26.741427093744278 12.808912575244905 7.0367954224348059 34.235417574644089 31.631623983383179 8.4627467989921552 12.711059764027594 15.001151993870733 17.620596468448639 262.81085014343262 50.732190683484077 18.594142064452171 11.20945532619953 10.678015455603601 6.0191415399312964 38.600521430373192 23.794028148055077 33.166120797395706
leaf_count=121 866 461 133 46 152 111 254 304 30 181 159 408 92 68 20 109 75 31 78 47 66 476 88 99 61 34 28 112 87 135
internal_value=0.0401388 0.0532619 0.065131 -0.00333182 0.0483901 0.0348441 0.0627307 0.0789343 -0.042708 0.0543737 0.0844398 0.0197949 0.0448877 -0.035424 0.00146678 0.0578095 0.0412297 0.0215045 -0.018097 0.0622681 -0.00501958 0.0888458 0.0802088 -0.0250064 -0.0512131 0.0367756 0.0104029 0.0456169 0.00659106 0.0125642
internal_weight=1549.05 1337.59 1105.64 231.943 501.854 260.02 241.833 603.789 211.459 111.883 476.399 148.137 121.575 101.092 19.8457 127.391 65.867 130.851 55.2628 81.6744 42.5517 394.724 120.258 24.9311 156.196 63.7604 16.6972 47.0633 67.0903 56.9601
internal_count=4932 3732 2710 1022 1407 821 586 1303 1200 302 986 519 346 549 88 317 184 473 273 206 195 780 240 129 927 205 62 143 268 222
is_linear=0
shrinkage=0.05


Tree=7
num_leaves=31
num_cat=0
split_feature=19 24 14 4 14 4 26 4 20 20 12 18 4 14 4 26 15 15 26 26 13 4 14 15 8 7 14 14 8 15
split_gain=857.554 88.0846 81.3926 37.7865 33.661 34.1907 28.858 27.9539 27.7606 22.7535 21.303 16.7083 15.4609 13.556 12.6584 16.1527 11.1733 10.6732 9.7624 9.60587 9.37507 8.91981 8.10407 23.8786 7.85111 7.5943 7.20885 6.81401 6.18519 8.21255
threshold=1.0000000180025095e-35 1.0000000180025095e-35 0.74900497512437825 0.31250000000000006 0.51119402985074636 0.048611111111111112 0.036398613293960318 0.14583333333333334 1.0000000180025095e-35 1.0000000180025095e-35 1.0000000180025095e-35 1.0000000180025095e-35 0.54861111111111127 0.025621890547263677 0.71527777777777779 0.063293273250354817 0.14303311793214865 0.89706612047080558 0.053844969126197968 0.068079067547432523 1.0000000180025095e-35 0.90972222222222221 0.11069651741293533 0.0020626586660512343 1.0000000180025095e-35 1.0000000180025095e-35 0.021144278606965165 0.76741293532338317 1.0000000180025095e-35 0.37057754442649443
decision_type=2 2 2 2 2 2 2 2 2 2 2 2 2 2 2 2 2 2 2 2 2 2 2 2 2 2 2 2 2 2
left_child=2 4 9 11 5 22 12 -6 17 -1 18 20 -5 26 15 -9 -15 19 -11 27 24 -16 23 -2 -3 -8 -7 -4 -12 -30
right_child=1 3 8 6 7 13 25 14 -10 10 28 -13 -14 16 21 -17 -18 -19 -20 -21 -22 -23 -24 -25 -26 -27 -28 -29 29 -31
leaf_value=-0.049493737717675429 0.053071584841872257 0.07431233187722551 0.025443584759376376 -0.050221564637423589 0.081106245854193182 0.00012972161261685198 0.065659035871957913 0.04236172997802181 0.02757511322082435 -0.040356946350956713 -0.011795243231534917 0.01684145825394957 0.035898758402284701 0.033381755963164124 -0.010970393795519935 0.089724230508382324 -0.0040256384877199805 -0.057117908733491388 0.016310070402688087 0.021530256273568499 0.087197771191766707 0.056879457330978794 0.066003085953145288 -0.027851423130009469 0.035141857964736893 0.03292356333668367 -0.056759656866332858 -0.039535330815290842 0.049116586238977467 -0.0074918997368530029
leaf_weight=153.6718568354845 46.783090144395828 77.054971858859062 4.2670731395483044 8.962224557995798 91.041669294238091 28.304245293140411 116.19846196472645 109.70652060210705 86.01954185962677 86.275346860289574 26.840570226311684 10.552678093314169 9.9137752801179868 85.329879656434059 15.642884582281114 22.495202422142029 25.407319471240044 12.277302443981169 7.6625587791204444 17.793676823377609 344.91622233390808 5.8281539976596823 60.198568925261497 10.508770883083342 19.309889748692513 25.507149800658226 5.8788771182298651 18.192320421338081 12.436541199684145 11.55532433092594
leaf_count=938 124 159 19 41 170 121 269 298 289 495 115 38 33 260 60 42 105 78 30 66 638 16 133 47 51 74 31 99 43 50
internal_value=0.0379484 0.061121 -0.0214104 0.0739404 0.0455151 0.0328141 0.0523842 0.0589252 0.0101833 -0.0360793 -0.0215639 0.0814578 -0.00520867 0.016337 0.0453125 0.0510715 0.0247951 -0.0181859 -0.0355588 -0.00509365 0.0829502 0.00893607 0.0527864 0.0379193 0.0669561 0.0600737 -0.0108473 -0.0264185 0.00438929 0.0224431
internal_weight=1556.53 1119.54 436.992 612.415 507.125 262.411 160.582 244.714 138.55 298.442 144.77 451.834 18.876 144.92 153.673 132.202 110.737 52.5304 93.9379 40.2531 441.281 21.471 117.49 57.2919 96.3649 141.706 34.1831 22.4594 50.8324 23.9919
internal_count=4932 2710 2222 1303 1407 821 417 586 551 1671 733 886 74 517 416 340 365 262 525 184 848 76 304 171 210 343 152 118 208 93
is_linear=0
shrinkage=0.05


Tree=8
num_leaves=31
num_cat=0
split_feature=19 17 17 4 4 20 14 15 25 20 14 14 4 14 12 24 15 15 14 14 15 14 13 13 1 4 24 4 14 14
split_gain=764.253 99.7839 76.236 48.6426 46.7452 26.6861 19.4452 17.67 16.4467 14.7828 16.783 14.6234 13.7143 11.8364 11.7885 15.3302 10.7043 11.45 9.45687 13.6859 7.99897 12.4187 9.28984 7.5024 7.19728 6.87826 6.67231 6.24182 7.18038 5.23524
threshold=1.0000000180025095e-35 1.0000000180025095e-35 1.0000000180025095e-35 0.076388888888888909 0.21527777777777779 1.0000000180025095e-35 0.025621890547263677 0.00017597507500576951 1.0000000180025095e-35 1.0000000180025095e-35 0.37288557213930351 0.47089552238805965 0.74305555555555569 0.080845771144278614 1.0000000180025095e-35 1.0000000180025095e-35 0.37057754442649443 0.3404425340410801 0.74900497512437825 0.72014925373134331 0.89706612047080558 0.84676616915422898 1.0000000180025095e-35 1.0000000180025095e-35 1.0000000180025095e-35 0.90972222222222221 1.0000000180025095e-35 0.020833333333333336 0.60671641791044795 0.72960199004975135
decision_type=2 2 2 2 2 2 2 2 2 2 2 2 2 2 2 2 2 2 2 2 2 2 2 2 2 2 2 2 2 2
left_child=2 3 9 6 27 20 7 23 11 26 -11 13 18 -5 15 -7 17 -12 19 -6 21 -4 -23 -2 -8 29 -1 -3 -29 -14
right_child=1 4 5 8 12 14 24 -9 -10 10 16 -13 25 -15 -16 -17 -18 -19 -20 -21 -22 22 -24 -25 -26 -27 -28 28 -30 -31
leaf_value=-0.051025031512882214 0.027321917064970093 0.092495582733632592 -0.040047706967786131 0.0030826640668784847 0.052894135874525197 -0.056165682225525287 0.057320796465942875 -0.0050321269079626543 -0.0036067617912850501 -0.040327614421971823 0.00056308379452193417 -0.013870461133685728 -0.01959424367999853 0.042136559074532683 0.028264150694994074 0.03035697010485951 -0.030680418677741562 0.07576282046970946 0.068124202235712403 -0.0022798753036311031 -0.056327193135261577 -0.038229983016628707 0.028581465847494228 0.078132675803980131 0.089325114929526939 0.058738634387718418 -0.0081163201285518304 0.061252841839663535 0.081222851814317876 0.025128698234098752
leaf_weight=133.78936332464218 18.318960517644882 108.68287582695484 19.510501608252525 24.61028978228569 128.70850998163223 9.5928690731525421 137.98427528142929 23.577468782663345 54.659281820058823 67.975072741508484 28.611353680491447 17.149183288216591 8.2372671812772769 99.273664683103561 88.84399126470089 8.9408870190382004 20.617928877472878 5.190607637166976 134.31326553225517 12.027966290712355 11.851999536156653 5.9872222244739559 19.442020088434219 13.991719499230383 25.141253709793091 10.585969388484953 10.461214184761046 86.027533888816833 204.86897432804108 21.604113131761551
leaf_count=849 56 172 111 100 310 60 317 98 214 392 130 72 33 297 290 29 105 16 289 38 78 29 74 28 44 27 59 180 366 69
internal_value=0.0359579 0.0575522 -0.0206612 0.0378607 0.0688967 0.00610288 0.0540296 0.0276946 0.0195567 -0.0371193 -0.0239407 0.0285314 0.0541012 0.0345051 0.0207255 -0.0147529 -0.00302338 0.0140995 0.0581389 0.0481606 -0.0213382 -0.0109765 0.0118105 0.05116 0.062798 0.0257694 -0.048025 0.0804014 0.0755643 0.0123864
internal_weight=1560.58 1129.76 430.815 414.706 715.056 164.169 219.014 55.8881 195.692 266.646 122.395 141.033 315.477 123.884 107.378 18.5338 54.4199 33.802 275.05 140.736 56.7917 44.9397 25.4292 32.3107 163.126 40.4273 144.251 399.579 290.897 29.8414
internal_count=4932 2710 2222 1226 1484 671 543 182 683 1551 643 469 766 397 379 89 251 146 637 348 292 214 103 84 361 129 908 718 546 102
is_linear=0
shrinkage=0.05


Tree=9
num_leaves=31
num_cat=0
split_feature=21 20 17 12 27 26 16 26 14 10 24 26 26 12 14 26 26 14 8 2 24 24 3 13 14 26 26 14 26 14
split_gain=490.832 250.064 89.7707 58.2575 39.723 28.9377 51.4542 25.0967 15.6667 12.4738 12.237 11.7318 11.2605 10.3929 9.05257 8.94919 7.34384 10.7667 6.70135 6.49504 6.49046 6.44984 6.37355 7.91608 6.1165 11.6602 8.45965 5.38891 5.20954 5.16468
threshold=1.0000000180025095e-35 1.0000000180025095e-35 1.0000000180025095e-35 1.0000000180025095e-35 1.0000000180025095e-35 0.024141094956545608 1.0000000180025095e-35 0.0024448512860530034 0.73432835820895526 1.0000000180025095e-35 1.0000000180025095e-35 0.053844969126197968 0.0417717588487862 1.0000000180025095e-35 0.76990049751243794 0.051484865765006244 0.027703349649651685 0.60671641791044795 1.0000000180025095e-35 1.0000000180025095e-35 1.0000000180025095e-35 1.0000000180025095e-35 1.0000000180025095e-35 1.0000000180025095e-35 0.90522388059701508 0.068079067547432523 0.060285718313420243 0.84676616915422898 0.062628264057654412 0.40223880597014933
decision_type=2 2 2 2 2 2 2 2 2 2 2 2 2 2 2 2 2 2 2 2 2 2 2 2 2 2 2 2 2 2
left_child=1 2 5 10 16 6 7 -1 20 14 -3 -12 13 -7 -6 18 -4 -18 -5 -10 -2 -8 27 -24 25 26 -21 -17 -11 -22
right_child=8 3 4 15 9 12 21 -9 19 28 11 -13 -14 -15 -16 22 17 -19 -20 24 29 -23 23 -25 -26 -27 -28 -29 -30 -31
leaf_value=0.043108177279413462 -0.05135238165024171 -0.04156997595909185 0.085844505897030327 -0.020644651085485469 0.042547957188508269 0.0079912586795925881 0.049571632832369872 -0.0058098676763474501 0.012642978629083796 0.0013418012637693947 -0.02674270076500794 0.049197467145626485 -0.034639410642635031 0.040464619020425904 0.066713838546986828 0.016906138759280646 0.053183788514082148 0.074243678641745456 0.019677881343146537 0.024561001973129243 0.029662505606910052 0.069970615918075268 -0.041530223313351558 0.020459633640961122 -0.051081890113294448 0.040780195625119267 -0.049772998687010912 0.046274244539279967 0.036836403405267303 -0.035197680344414894
leaf_weight=45.487486258149147 131.96912054717541 75.877027466893196 111.69670177996159 20.847760051488876 106.8536701053381 72.415372729301453 104.39379268884659 59.325598031282425 13.777188286185263 18.615626469254494 12.157645210623743 7.2815967351198188 9.6117393821477872 37.306366145610809 74.474035918712616 29.130095586180687 96.678140923380852 287.70052146911621 18.47184282541275 4.3786948770284715 4.14300289750099 89.104591727256775 5.9230972975492504 19.010682597756386 14.476484552025793 6.9693684726953498 13.745803177356718 39.984927654266357 23.364879190921783 6.600789949297905
leaf_count=123 866 461 180 94 280 249 256 254 63 61 68 20 47 110 161 103 210 532 72 21 21 187 26 66 86 23 80 112 60 40
internal_value=0.0341375 0.0447592 0.0543469 -0.0029182 0.0650784 0.0357388 0.0440602 0.0155794 -0.0396774 0.0470912 -0.0326031 0.0024738 0.0147021 0.0193434 0.0528121 0.0183447 0.0730543 0.0691115 -0.00155941 -0.0160188 -0.0483134 0.0593024 0.0266476 0.00450738 -0.0261869 -0.0102263 -0.031208 0.0343854 0.0216106 -0.00936459
internal_weight=1561.77 1365.71 1137.03 228.685 719.384 417.645 298.311 104.813 196.06 223.308 95.3163 19.4392 119.333 109.722 181.328 133.368 496.075 384.379 39.3196 53.3475 142.713 193.498 94.0488 24.9338 39.5704 25.0939 18.1245 69.115 41.9805 10.7438
internal_count=4932 3732 2710 1022 1484 1226 820 377 1200 562 549 88 406 359 441 473 922 742 166 273 927 443 307 92 210 124 101 215 121 61
is_linear=0
shrinkage=0.05


Tree=10
num_leaves=31
num_cat=0
split_feature=19 17 17 4 4 20 14 15 14 15 25 26 11 4 13 15 12 24 15 14 14 15 14 13 15 13 26 15 7 26
split_gain=613.024 81.3388 65.5852 41.287 39.9266 21.8945 15.9181 14.7467 14.078 17.2993 13.9253 14.7562 12.3695 16.1017 10.7691 20.4878 9.68233 13.4462 9.30116 8.54619 7.73881 7.59744 11.2639 8.34132 7.35447 6.81172 6.63866 12.3826 6.45778 11.6717
threshold=1.0000000180025095e-35 1.0000000180025095e-35 1.0000000180025095e-35 0.21527777777777779 0.076388888888888909 1.0000000180025095e-35 0.025621890547263677 0.00017597507500576951 0.28880597014925374 0.37057754442649443 1.0000000180025095e-35 0.040752349316657797 1.0000000180025095e-35 0.81250000000000011 1.0000000180025095e-35 0.34543618739903076 1.0000000180025095e-35 1.0000000180025095e-35 0.16103450265405037 0.080845771144278614 0.87736318407960212 0.89706612047080558 0.84676616915422898 1.0000000180025095e-35 0.13487479806138938 1.0000000180025095e-35 0.0078717848674930251 0.10192995615047314 1.0000000180025095e-35 0.042042736441185856
decision_type=2 2 2 2 2 2 2 2 2 2 2 2 2 2 2 2 2 2 2 2 2 2 2 2 2 2 2 2 2 2
left_child=2 4 8 28 6 21 7 25 -1 14 11 19 13 18 15 -10 17 -7 -5 -6 -14 22 -4 -24 -16 -2 -12 -28 -3 -30
right_child=1 3 5 12 10 16 -8 -9 9 -11 26 -13 20 -15 24 -17 -18 -19 -20 -21 -22 -23 23 -25 -26 -27 27 -29 29 -31
leaf_value=-0.047320972952060038 0.023491309564927801 0.074592568027017803 -0.038377652113196846 -0.0090572809384027106 0.0027334521696126633 -0.054760301905317749 0.056171545843865966 -0.0053369132631149079 -0.044378584694845319 -0.039157290207882875 -0.033289921965706806 -0.03311835492396939 0.058636977891471258 -0.031940666687913594 0.063286300519525926 0.059765579953834407 0.025051288421593106 0.026999522348689527 0.043522571322037774 0.035632031072129054 0.018282493908374407 -0.055116803104222435 -0.036655394393239213 0.027140647202697762 0.0043264091055028034 0.071115521926541136 0.023651844159248158 -0.034327306995011263 0.0035194931103551814 0.066673512043690139
leaf_weight=122.99669666588306 18.694492608308792 365.30605302751064 18.767062276601791 8.6120215207338315 24.659096583724022 9.0336600840091705 165.53688554465771 23.604827657341957 23.038983061909679 74.182469427585602 13.457287758588789 9.1634048670530301 182.75101080536842 7.6418203562498084 5.9774364978075054 4.9255661666393271 90.455722108483315 9.1144805252552032 107.45860747992992 109.4166624546051 14.303090184926985 11.172685116529463 5.824606820940974 19.621684893965721 23.501760944724083 14.265937969088553 29.06157498061657 12.26081746816635 10.513933569192885 25.425621420145035
leaf_count=803 56 643 111 26 100 60 361 98 132 461 66 45 401 32 25 18 290 29 267 324 40 78 29 74 112 28 94 54 28 47
internal_value=0.0324572 0.0514173 -0.0192605 0.0616211 0.0337648 0.00536225 0.0483035 0.0246152 -0.0350973 -0.0233667 0.0172719 0.0254294 0.0478971 0.0348587 -0.00256812 -0.0244323 0.0183819 -0.0141716 0.0395346 0.0296834 0.0558402 -0.0199518 -0.0099326 0.0115149 0.0181298 0.0457384 -0.0040423 0.00592602 0.0724337 0.0489289
internal_weight=1560.75 1142.13 418.613 722.012 420.121 163.99 222.102 56.5653 254.623 131.626 198.019 143.239 320.767 123.712 57.4437 27.9645 108.604 18.1481 116.071 134.076 197.054 55.386 44.2134 25.4463 29.4792 32.9604 54.7797 41.3224 401.246 35.9396
internal_count=4932 2710 2222 1484 1226 671 543 182 1551 748 683 469 766 325 287 150 379 89 293 424 441 292 214 103 137 84 214 148 718 75
is_linear=0
shrinkage=0.05


Tree=11
num_leaves=31
num_cat=0
split_feature=19 24 12 20 4 26 28 4 4 4 10 10 26 18 7 24 26 26 8 26 13 26 8 4 7 18 15 26 13 26
split_gain=550.92 63.8028 59.1068 43.4472 29.3457 23.3702 17.8568 24.3062 21.3251 13.5389 13.1851 12.3158 13.7725 11.1676 11.0986 10.0686 11.6203 9.9771 14.2129 9.89534 8.5532 7.05911 6.96134 6.78339 6.52361 6.37278 11.5557 5.6739 5.46149 5.02638
threshold=1.0000000180025095e-35 1.0000000180025095e-35 1.0000000180025095e-35 1.0000000180025095e-35 0.31250000000000006 0.036398613293960318 1.0000000180025095e-35 0.076388888888888909 0.17361111111111113 0.54861111111111127 1.0000000180025095e-35 1.0000000180025095e-35 0.064348973472295665 1.0000000180025095e-35 1.0000000180025095e-35 1.0000000180025095e-35 0.053844969126197968 0.066910943134119119 1.0000000180025095e-35 0.0078717848674930251 1.0000000180025095e-35 0.034875278978656492 1.0000000180025095e-35 0.90972222222222221 1.0000000180025095e-35 1.0000000180025095e-35 0.0020626586660512343 0.02447852576607942 1.0000000180025095e-35 0.02216110070187324
decision_type=2 2 2 2 2 2 2 2 2 2 2 2 2 2 2 2 2 2 2 2 2 2 2 2 2 2 2 2 2 2
left_child=2 6 15 10 13 9 7 25 -8 -6 14 -10 -13 20 23 -1 -17 -12 -19 -9 22 -5 -3 -4 28 29 -27 -21 -7 -2
right_child=1 4 3 21 5 24 8 19 11 -11 17 12 -14 -15 -16 16 -18 18 -20 27 -22 -23 -24 -25 -26 26 -28 -29 -30 -31
leaf_value=-0.043611402643391056 0.054332985520584687 0.059483124160023264 -0.0019509907404746036 -0.022287671729190842 -0.051632431617319424 0.022884405818922815 0.064346878573799254 -0.018065521104773895 0.040671355293533842 0.02774953150262903 -0.052995991510965561 -0.018199276759652362 0.051659097382686196 0.01360066477671671 -0.026019845016217104 -0.033042069611535739 0.037581250815108824 0.055077412935990777 -0.03139120520417759 0.031129057518294256 0.071247863746675202 0.019958736738204707 0.024067016761289275 0.076305664894911043 0.023619529346367019 0.040841153839603371 -0.0066450968348016008 0.0075030153494372439 0.057062966091834783 0.020437217229344402
leaf_weight=164.1321607530117 75.821938633918762 78.817807391285896 4.6197959184646606 9.8056347221136075 9.1178470253944415 15.824501246213911 94.431748822331429 23.234168112277985 113.93532267212868 10.446772083640097 43.036826804280281 20.747600138187412 9.4322392046451551 10.711109012365339 11.685389831662178 15.253253921866419 8.069185331463812 5.0603540241718319 21.128477171063423 43.187860712409019 350.40095567703247 124.68303097784519 19.778647005558014 5.3316074311733246 26.387581467628479 41.984483644366264 17.653258249163628 63.663260951638222 104.24870371818542 15.268155619502066
leaf_count=1094 160 159 25 46 41 42 176 110 284 33 293 78 21 38 67 90 24 17 117 132 638 427 51 22 74 110 75 219 227 42
internal_value=0.0308893 0.0487316 -0.0185902 -0.00128068 0.0595255 0.0409694 0.0356279 0.026865 0.0457674 -0.00971409 -0.0278408 0.0331992 0.00443009 0.0661128 0.0058357 -0.0392554 -0.00786146 -0.038371 -0.0130881 0.0108547 0.0673214 0.0166999 0.0527418 0.0426588 0.0477937 0.0404871 0.0268246 0.0172988 0.0528261 0.0489894
internal_weight=1557.9 1145.09 412.806 225.351 625.734 166.025 519.36 280.813 238.547 19.5646 90.8625 144.115 30.1798 459.709 21.6368 187.455 23.3224 69.2257 26.1888 130.085 448.997 134.489 98.5965 9.9514 146.461 150.728 59.6377 106.851 120.073 91.0901
internal_count=4932 2710 2222 1014 1303 417 1407 848 559 74 541 383 99 886 114 1208 114 427 134 461 848 473 210 47 343 387 185 351 269 202
is_linear=0
shrinkage=0.05


Tree=12
num_leaves=31
num_cat=0
split_feature=19 17 17 4 4 4 20 14 14 15 4 14 14 15 12 3 15 4 15 6 15 14 14 4 10 4 7 4 14 1
split_gain=496.056 69.2326 56.9139 37.0783 32.7405 19.9301 13.6374 13.9077 12.8665 12.4191 12.0262 11.4541 13.7258 10.6517 9.88803 10.3987 9.52582 9.15076 9.00353 8.1807 11.9462 7.89627 7.46622 7.30962 6.94657 6.30431 6.2062 6.10305 8.03903 5.32853
threshold=1.0000000180025095e-35 1.0000000180025095e-35 1.0000000180025095e-35 0.2013888888888889 0.076388888888888909 0.97916666666666674 1.0000000180025095e-35 0.37288557213930351 0.025621890547263677 0.00017597507500576951 0.74305555555555569 0.47089552238805965 0.069900497512437834 0.14303311793214865 1.0000000180025095e-35 1.0000000180025095e-35 0.37057754442649443 0.68750000000000011 0.3404425340410801 1.0000000180025095e-35 0.39009635356565897 0.020149253731343287 0.84676616915422898 0.15972222222222224 1.0000000180025095e-35 0.90972222222222221 1.0000000180025095e-35 0.020833333333333336 0.64527363184079622 1.0000000180025095e-35
decision_type=2 2 2 2 2 2 2 2 2 2 2 2 2 2 2 2 2 2 2 2 2 2 2 2 2 2 2 2 2 2
left_child=2 4 6 27 8 14 -1 -8 9 -2 19 12 21 -14 -4 22 18 -17 -9 20 -5 -6 -16 -13 29 -12 -7 -3 -29 -10
right_child=1 3 5 10 11 26 7 16 24 -11 25 23 13 -15 15 17 -18 -19 -20 -21 -22 -23 -24 -25 -26 -27 -28 28 -30 -31
leaf_value=-0.044438473736148724 0.041153366429373783 0.077834581198282557 -0.017045353301643491 0.040213815901811431 0.011099194122517756 -0.0021505493918539654 -0.036279546946919407 0.0021091678684770332 0.049226961020153281 -0.0055530555640471921 0.0052472260506710201 0.023170952164335807 0.035482217245038881 0.0040378841311622575 0.008112591751423601 0.02929466476196926 -0.02825685169949876 -0.024000190367826232 0.067943371569576916 0.052387026529178815 -0.013448564103070292 -0.032667173711978074 0.039822249916292185 -0.037467053192432306 0.024637010299232598 0.048381148333983548 -0.051667628281806058 0.051365854956277407 0.070114481915647772 0.077624001871397494
leaf_weight=128.47738771140575 33.424870014190674 107.27170722186565 22.390332490205765 75.149318814277649 26.00520133972168 10.348373502492906 61.850722759962082 28.05351097881794 116.66254761815071 23.60966919362545 31.031892105937004 6.342533931136134 99.211233198642731 37.725908622145653 30.663503810763359 11.561022371053694 19.737856447696686 21.380411073565483 5.4434822648763648 208.43962424993515 11.357943683862684 15.632187008857725 50.574964419007301 14.798675641417502 25.833886563777924 10.988808050751684 16.633124709129333 128.4557830542326 150.06991799175739 24.377203613519669
leaf_count=908 84 172 118 175 108 47 392 130 254 98 102 18 274 140 116 37 105 94 16 452 36 71 152 72 66 27 107 259 261 41
internal_value=0.029438 0.046266 -0.0179325 0.0556951 0.0300734 0.00484576 -0.0332057 -0.020348 0.0431874 0.0219704 0.0432766 0.0152041 0.0193429 0.0269477 0.0126688 0.0186364 -0.0014182 -0.00483666 0.014612 0.0468597 0.0330379 -0.00559581 0.0281584 -0.0188245 0.0502351 0.0175058 -0.0336103 0.066389 0.0617002 0.0546822
internal_weight=1553.5 1146.39 407.115 722.765 423.624 163.552 243.563 115.086 223.908 57.0345 336.968 199.716 178.575 136.937 136.57 114.18 53.2348 32.9414 33.497 294.947 86.5073 41.6374 81.2385 21.1412 166.874 42.0207 26.9815 385.797 278.526 141.04
internal_count=4932 2710 2222 1484 1226 671 1551 643 543 182 792 683 593 414 517 399 251 131 146 663 211 179 268 90 361 129 154 692 520 295
is_linear=0
shrinkage=0.05


Tree=13
num_leaves=31
num_cat=0
split_feature=19 17 17 4 4 4 26 26 7 4 25 26 1 11 4 3 20 2 16 26 24 4 4 7 7 24 26 26 4 7
split_gain=447.673 63.4961 52.9387 35.1439 29.6304 18.2905 13.9668 13.3154 15.702 15.1524 11.65 12.0419 11.5916 10.9758 13.813 9.07044 8.54628 8.57645 8.22826 7.14179 7.02967 6.34885 6.04384 8.03726 5.92631 5.33536 5.66434 5.33476 6.89 5.22601
threshold=1.0000000180025095e-35 1.0000000180025095e-35 1.0000000180025095e-35 0.21527777777777779 0.076388888888888909 0.97916666666666674 0.052505630933006898 0.011875629808488886 1.0000000180025095e-35 0.67361111111111116 1.0000000180025095e-35 0.040752349316657797 1.0000000180025095e-35 1.0000000180025095e-35 0.81250000000000011 1.0000000180025095e-35 1.0000000180025095e-35 1.0000000180025095e-35 1.0000000180025095e-35 0.0024448512860530034 1.0000000180025095e-35 0.020833333333333336 0.40972222222222227 1.0000000180025095e-35 1.0000000180025095e-35 1.0000000180025095e-35 0.035514097985210581 0.0078717848674930251 0.3263888888888889 1.0000000180025095e-35
decision_type=2 2 2 2 2 2 2 2 2 2 2 2 2 2 2 2 2 2 2 2 2 2 2 2 2 2 2 2 2 2
left_child=2 4 7 21 12 6 -4 -1 9 -9 11 15 18 14 -5 -6 17 -8 19 -2 -11 -3 -15 -24 -7 -10 -27 -12 -29 -23
right_child=1 3 5 13 10 24 16 8 25 20 27 -13 -14 22 -16 -17 -18 -19 -20 -21 -22 29 23 -25 -26 26 -28 28 -30 -31
leaf_value=-0.047183478030911469 0.031660822101398603 0.074794520659917457 -0.053903444971578868 0.032787673264316468 0.032367926577268384 -0.0020543653423174941 0.027007461066629802 0.020460779931232912 -0.0407540265498538 -0.044094747515687288 -0.031707202107960193 -0.031727051395599885 0.071800275005539024 0.059623064987961709 -0.032929232568352569 0.0011788548232671593 0.023045609213434893 -0.025164048367633349 0.043479611466545796 -0.0044016520674147351 0.020423733958286255 0.061134370698606194 0.046569954606743597 0.013353701382406456 -0.05072346760514379 0.029840941599353493 -0.029812079548147182 0.01422181314217158 -0.033691940050265434 0.036992115163337655
leaf_weight=92.39856430888176 44.537936389446259 106.11952698230743 6.6140310764312735 117.80431081354618 106.06022104620934 10.33831959962845 11.319812953472136 32.154027238488197 75.065574377775192 19.260806113481525 13.113662436604498 8.9306804090738279 27.264722689986229 76.554313793778419 7.7121325731277457 30.32887502014637 98.253756791353226 20.78001506626606 133.51688076555729 19.008960634469986 4.5785057991743079 258.21492780745029 98.692699283361435 24.067095145583153 16.127106621861458 5.461569517850875 9.3189222663640958 33.233464002609253 8.5924530923366529 32.026703149080276
leaf_count=665 119 172 43 293 316 47 47 157 496 131 66 45 48 150 32 108 320 107 296 80 22 477 224 67 107 25 55 109 39 69
internal_value=0.0280878 0.0440021 -0.0172925 0.0530545 0.0285257 0.00458883 0.0120071 -0.0322807 -0.0225477 -0.0015985 0.0144011 0.0217823 0.0409928 0.0405729 0.0284819 0.0255279 0.0157743 -0.00635491 0.0363642 0.0208948 -0.0311789 0.0631431 0.0479819 0.0402588 -0.0326607 -0.0353872 -0.00695854 -0.00507389 0.00370508 0.0586237
internal_weight=1547.45 1145.78 401.671 721.192 424.588 163.433 136.968 238.238 145.839 55.9933 200.259 145.32 224.329 324.831 125.516 136.389 130.354 32.0998 197.064 63.5469 23.8393 396.361 199.314 122.76 26.4654 89.8461 14.7805 54.9396 41.8259 290.242
internal_count=4932 2710 2222 1484 1226 671 517 1551 886 310 683 469 543 766 325 424 474 154 495 199 153 718 441 291 154 576 80 214 148 546
is_linear=0
shrinkage=0.05


Tree=14
num_leaves=31
num_cat=0
split_feature=19 24 14 4 26 20 4 14 4 4 14 4 13 26 26 26 13 8 4 14 4 7 7 24 4 26 14 8 1 14
split_gain=404.732 52.8362 49.0377 24.4606 19.3184 18.6747 16.5305 15.6476 19.4779 19.1307 14.7878 12.4443 10.0465 9.70995 12.1278 8.52488 7.83658 10.8428 9.52343 7.75029 6.67062 6.4693 6.45893 6.07573 6.67436 5.4322 7.04505 5.40197 5.33329 5.87829
threshold=1.0000000180025095e-35 1.0000000180025095e-35 0.74900497512437825 0.31250000000000006 0.036398613293960318 1.0000000180025095e-35 0.97916666666666674 0.51567164179104485 0.14583333333333334 0.062500000000000014 0.37288557213930351 0.54861111111111127 1.0000000180025095e-35 0.063293273250354817 0.060752512910039441 0.0078717848674930251 1.0000000180025095e-35 1.0000000180025095e-35 0.90972222222222221 0.40223880597014933 0.68750000000000011 1.0000000180025095e-35 1.0000000180025095e-35 1.0000000180025095e-35 0.88194444444444453 0.02216110070187324 0.11069651741293533 1.0000000180025095e-35 1.0000000180025095e-35 0.51666666666666672
decision_type=2 2 2 2 2 2 2 2 2 2 2 2 2 2 2 2 2 2 2 2 2 2 2 2 2 2 2 2 2 2
left_child=2 7 5 12 11 23 16 9 -9 25 -7 -5 27 14 -10 -11 18 -18 22 -17 -15 -8 -4 28 -25 26 -2 -3 -1 -30
right_child=1 3 6 4 -6 10 21 8 13 15 -12 -13 -14 20 -16 19 17 -19 -20 -21 -22 -23 -24 24 -26 -27 -28 -29 29 -31
leaf_value=-0.049481921945344044 0.025426479489786158 0.048660670202824413 0.0033372966044165073 -0.05132904391348872 0.041140049038018843 -0.034506399320444373 0.0023615698548357191 0.058591332294452084 0.027120428126647902 -0.017086579918195142 -0.00092261862536666703 0.024597459137359931 0.062031436268252943 0.068755562617836066 -0.023078219462096851 0.021933952312825716 0.044795128477469602 0.0083487212403558757 0.032723233228858929 -0.0077098398644433897 0.017337601331100665 -0.049238997724347255 -0.052962619684138172 -0.047932166203850969 0.027092648781522535 0 0.049812324197267312 0.017943525051970964 -0.045549608873442039 0.031434627407780219
leaf_weight=107.5752307921648 65.951620668172836 83.59458814561367 8.9641581922769582 9.0624511539936083 147.65373006463051 59.244056820869446 9.4716444164514542 85.689489111304283 113.27605351805687 25.485557526350021 72.713468194007874 10.644846051931379 351.67269745469093 21.363654419779781 12.576505511999128 84.850661441683769 32.795368954539299 54.125781893730164 8.8535733968019468 28.797210663557053 10.373371928930281 14.702497512102127 10.034253299236298 4.1758473664522153 5.9139481037855148 10.623019352555273 62.568389028310776 19.82339970767498 3.7520047128200522 4.1671901196241379
leaf_count=821 192 178 35 41 343 392 42 159 301 121 341 33 657 38 41 263 100 193 33 103 29 100 48 29 33 31 129 51 29 26
internal_value=0.026808 0.0418876 -0.0166852 0.0517561 0.034958 -0.0295663 0.00719516 0.0300239 0.0393401 0.0217498 -0.0161842 -0.0108687 0.0578325 0.0285372 0.0219223 0.00849737 0.0151623 0.0225099 -0.00758037 0.0143772 0.0531451 -0.0295321 -0.0273096 -0.0433491 -0.00502916 0.0348105 0.03763 0.0430489 -0.0465819 -0.00549638
internal_weight=1540.5 1144.01 396.489 622.452 167.361 257.542 138.947 521.556 243.279 278.276 131.958 19.7073 455.091 157.59 125.853 139.133 114.773 86.9212 27.852 113.648 31.737 24.1741 18.9984 125.584 10.0898 139.143 128.52 103.418 115.494 7.91919
internal_count=4932 2710 2222 1303 417 1671 551 1407 568 839 733 74 886 409 342 487 409 293 116 366 67 142 83 938 62 352 321 229 876 55
is_linear=0
shrinkage=0.05


Tree=15
num_leaves=31
num_cat=0
split_feature=19 17 17 4 4 4 26 7 4 13 26 1 4 14 14 26 15 13 14 14 21 2 6 15 4 14 4 14 26 7
split_gain=366.072 55.7751 45.616 32.2755 24.8757 15.4705 12.7127 14.8762 13.8502 13.7164 12.624 10.7167 10.2684 9.92896 10.7232 9.35606 8.65791 8.04871 8.01725 7.66867 7.56578 7.77969 7.52646 10.7211 6.23601 5.94134 5.71414 7.9269 5.47173 5.38083
threshold=1.0000000180025095e-35 1.0000000180025095e-35 1.0000000180025095e-35 0.18750000000000003 0.076388888888888909 0.97916666666666674 0.011875629808488886 1.0000000180025095e-35 0.67361111111111116 1.0000000180025095e-35 0.052505630933006898 1.0000000180025095e-35 0.74305555555555569 0.47089552238805965 0.069900497512437834 0.064348973472295665 0.14303311793214865 1.0000000180025095e-35 0.85348258706467672 0.020149253731343287 1.0000000180025095e-35 1.0000000180025095e-35 1.0000000180025095e-35 0.39009635356565897 0.15972222222222224 0.025621890547263677 0.020833333333333336 0.60671641791044795 0.060489238633481983 1.0000000180025095e-35
decision_type=2 2 2 2 2 2 2 2 2 2 2 2 2 2 2 2 2 2 2 2 2 2 2 2 2 2 2 2 2 2
left_child=2 4 6 26 11 10 -1 8 9 -8 -4 17 22 14 19 28 -16 25 -17 -6 -12 -22 23 -5 -15 -2 -3 -28 -14 -7
right_child=1 3 5 12 13 29 7 -9 -10 -11 20 -13 15 24 16 18 -18 -19 -20 -21 21 -23 -24 -25 -26 -27 27 -29 -30 -31
leaf_value=-0.045567820848877179 0.0048349096281864049 0.070013427309753379 -0.052995541591373534 0.034295568653476015 0.010704926639278326 -0.0020317509782390802 -0.018492775271063321 -0.033750178014188129 -0.029534893344363152 0.046231901649283889 0.021038299188427992 0.066530841696174708 0.0067119635551988431 0.019266702058050547 0.030627870925855921 0.065424617370108004 0.002473509786627174 0.042406497825669354 0.0029219918611603779 -0.032498365808735073 0.024849468294011048 -0.024665646176485118 0.045759995888667138 -0.016022319612681201 -0.036666746932269616 0.030931706802568838 0.039875340518820412 0.060358245349004649 -0.045940938546408641 -0.048950759831941554
leaf_weight=86.839227363467216 34.976935416460037 103.45864772796631 6.3689381629228583 80.095055893063545 26.051718518137932 10.334441736340523 12.868852645158766 86.337596997618675 22.919740624725819 19.267803713679314 99.273430526256561 27.069700196385384 16.392064601182941 6.4444227814674404 100.8776848167181 10.68455356359482 38.104379326105118 101.39875982701778 9.6328132599592191 15.524310767650602 11.507025599479674 20.621332958340645 218.01186500489712 11.432940840721129 14.573404997587202 61.28886504471302 78.941230237483978 180.88338594138622 5.8785579204559317 15.17420594394207
leaf_count=665 120 172 43 185 108 47 75 576 153 82 320 48 55 18 274 20 140 231 30 71 47 107 469 36 72 144 166 327 24 107
internal_value=0.0255943 0.0398935 -0.0160872 0.0484423 0.0254558 0.00405883 -0.0304765 -0.0209179 -0.000462417 0.0203867 0.0107483 0.0368819 0.0374092 0.0125731 0.0163837 0.013794 0.0230174 0.032482 0.0375528 -0.00569397 0.0142526 -0.00656571 0.0405873 0.027851 -0.0191934 0.0216484 0.0589908 0.0543309 -0.0083484 -0.0309246
internal_weight=1533.23 1141.72 391.513 715.411 426.31 163.279 228.233 141.394 55.0564 32.1367 137.771 224.734 352.128 201.576 180.558 42.588 138.982 197.665 20.3174 41.576 131.402 32.1284 309.54 91.528 21.0178 96.2658 363.283 259.825 22.2706 25.5086
internal_count=4932 2710 2222 1484 1226 671 1551 886 310 157 517 543 819 683 593 129 414 495 50 179 474 154 690 221 90 264 665 493 79 154
is_linear=0
shrinkage=0.05


Tree=16
num_leaves=31
num_cat=0
split_feature=21 20 13 14 4 14 4 4 26 14 14 4 14 15 14 14 25 3 26 26 26 14 15 6 6 26 26 4 15 22
split_gain=255.004 116.031 42.0783 31.201 27.4998 20.8823 13.2115 13.15 12.8025 12.5915 10.0327 8.77225 8.74049 8.67299 7.20466 7.17514 6.92437 6.65546 7.30922 6.27438 6.15573 7.80516 5.91472 10.0771 5.83551 4.57682 4.49192 4.37952 10.7937 11.1065
threshold=1.0000000180025095e-35 1.0000000180025095e-35 1.0000000180025095e-35 0.40796019900497515 0.10416666666666667 0.55298507462686575 0.15972222222222224 0.39583333333333331 0.0084822696851622748 0.73432835820895526 0.54452736318407979 0.74305555555555569 0.57587064676616928 0.89706612047080558 0.82711442786069655 0.012189054726368153 1.0000000180025095e-35 1.0000000180025095e-35 0.067465405646816218 0.02216110070187324 0.068079067547432523 0.76741293532338317 0.37057754442649443 1.0000000180025095e-35 1.0000000180025095e-35 0.037454605480356569 0.048452967345516691 0.3263888888888889 0.10192995615047314 1.0000000180025095e-35
decision_type=2 2 2 2 2 2 2 2 2 2 2 2 2 2 2 2 2 2 2 2 2 2 2 2 2 2 2 2 2 2
left_child=1 2 6 27 10 16 12 -7 -8 -2 19 -10 15 20 22 -1 -6 24 -19 -4 21 -11 23 -5 -16 -14 -24 28 29 -3
right_child=9 3 4 14 5 7 8 -9 11 13 -12 -13 25 -15 17 -17 -18 18 -20 -21 -22 -23 26 -25 -26 -27 -28 -29 -30 -31
leaf_value=-0.019873532963579275 -0.042658120215335334 -0.047598471261745504 0.051267304024132682 0.035767269742677646 0.023846905326521589 0.050985015790879787 -0.03903741992578353 0.031209936769284741 0.018592218045485186 0.027552506917346304 0.064905325044083792 -0.035605739340178313 0.071207461488420457 -0.052519404381568928 0.068348422951803031 0.027227643652514923 -0.0066816061444384374 0.033176771157171041 -0.035026311392244762 0.025989463978350408 0.01959439373770782 -0.035795227900897661 -0.03489611044937168 -0.016455708690165442 0.022874842064724919 0.033596493154022793 -0.00093381677086448863 -0.041539389314671882 0.050027505947198229 0.039979696827229266
leaf_weight=7.7053098976612082 116.90638151019812 15.816526532173162 135.01519139111042 24.42808423936367 102.29494881629944 204.2916409522295 11.389171347022055 158.46734067797661 99.304729342460632 5.7918115109205273 158.05300679802895 7.0929773300886145 17.301035657525063 9.5883554220199567 8.7106364220380765 157.29020063579082 21.891703352332115 5.8895611912012091 8.1108643263578397 35.20933997631073 17.954049423336983 16.608166635036469 11.318489968776701 13.612614549696444 36.790844231843948 22.403171047568321 48.326107904314995 38.63942214846611 4.3931786417961112 3.7298655956983557
leaf_count=30 927 116 280 93 299 406 57 393 284 30 275 28 28 78 19 416 81 17 34 85 66 99 68 64 106 48 196 266 20 23
internal_value=0.0244644 0.0316374 0.0380571 -0.0015963 0.0441199 0.0363956 0.0226266 0.0424698 0.00911792 -0.0337061 0.055417 0.0146347 0.0302932 -0.0122267 0.0102772 0.0248914 0.018415 0.0238442 -0.00570294 0.0462503 -0.00149354 -0.0187247 0.00180476 0.0170087 0.0329703 0.051455 -0.00793028 -0.0311916 -0.0132935 -0.0295109
internal_weight=1524.32 1357.48 1137.71 219.766 815.223 486.946 322.487 362.759 117.787 166.849 328.278 106.398 204.7 49.9424 157.187 164.996 124.187 59.5019 14.0004 170.225 40.354 22.4 97.6853 38.0407 45.5015 39.7042 59.6446 62.579 23.9396 19.5464
internal_count=4932 3732 2710 1022 1819 1179 891 799 369 1200 640 312 522 273 597 446 380 176 51 365 195 129 421 157 125 76 264 425 159 139
is_linear=0
shrinkage=0.05


Tree=17
num_leaves=31
num_cat=0
split_feature=19 17 12 4 20 4 5 4 1 11 4 4 7 14 26 4 11 4 14 13 14 14 15 4 4 8 15 13 26 26
split_gain=300.468 49.2631 42.6874 29.8141 27.9228 20.7985 15.3069 11.4418 10.1252 9.78222 11.2974 8.27778 8.02268 6.66603 8.88716 6.60807 6.54422 7.16473 6.43338 6.41345 8.527 6.09896 7.9344 5.48675 5.17062 5.0637 7.57151 4.69966 8.93513 5.90059
threshold=1.0000000180025095e-35 1.0000000180025095e-35 1.0000000180025095e-35 0.21527777777777779 1.0000000180025095e-35 0.076388888888888909 1.0000000180025095e-35 0.31250000000000006 1.0000000180025095e-35 1.0000000180025095e-35 0.81250000000000011 0.2986111111111111 1.0000000180025095e-35 0.025621890547263677 0.004626846686932526 0.020833333333333336 1.0000000180025095e-35 0.35416666666666669 0.87736318407960212 1.0000000180025095e-35 0.51417910447761217 0.28880597014925374 0.12424128779136859 0.95138888888888895 0.39583333333333331 1.0000000180025095e-35 0.7907915993537965 1.0000000180025095e-35 0.043818627724207138 0.056056558865766846
decision_type=2 2 2 2 2 2 2 2 2 2 2 2 2 2 2 2 2 2 2 2 2 2 2 2 2 2 2 2 2 2
left_child=2 5 21 15 12 8 16 11 13 10 -5 -8 23 14 -2 -3 -7 -18 -11 -17 -21 -1 -23 -4 -9 26 -14 28 -6 -30
right_child=1 3 4 9 27 6 7 24 -10 18 -12 -13 25 -15 -16 19 17 -19 -20 20 -22 22 -24 -25 -26 -27 -28 -29 29 -31
leaf_value=-0.042242690871706935 0.02117452398016386 0.065864609211054193 -0.020280209119710527 0.025705293436429646 -0.044611649514717293 0.017080074454935208 0.0067615426531019672 -0.045108011257412164 0.062158410935524912 0.042561691572680811 -0.033419432423678709 0.062063047917029428 -0.031898265877456804 0.034843998121230811 -0.03811575123232866 0.032248436172058116 0.072483807741297965 0.016038604223355971 0.0070816134427935315 0 0.054967619173935472 0.030890074156073383 -0.027150367615824723 0.022233985295217626 -0.0069726921285189125 -0.044643633573897452 0.037358144691798406 0.019141594243116775 0.038952367639310863 -0.0053218541874914373
leaf_weight=97.847976550459862 50.298782512545586 100.18099249899387 16.525001183152202 118.63923765718937 8.2290097028017026 35.473751395940781 96.204569593071938 13.087894722819327 26.745922639966011 184.54898309707642 7.7485820502042762 6.3571176826953879 11.343859292566778 141.36295840144157 6.2286363542079917 52.021732613444328 14.854979753494264 10.213059693574904 14.564625293016432 7.2705472856760016 221.79707652330399 5.6134256273508063 59.560824669897556 12.359730675816534 26.438111752271652 37.236840650439262 4.800576113164424 97.858436197042465 11.006123974919321 19.217428520321846
leaf_count=787 147 172 99 293 42 104 327 63 48 401 32 16 85 317 31 113 29 33 40 19 414 31 390 64 111 274 19 325 39 67
internal_value=0.0233829 0.0362902 -0.0149565 0.0444081 -0.00046358 0.0227778 0.0110451 0.00197126 0.0332431 0.0330641 0.0218073 0.0108038 -0.0233283 0.029017 0.0140055 0.0539679 0.0318815 0.0511765 0.0400398 0.0494917 0.0532287 -0.0342366 -0.0216846 -0.00178588 -0.020525 -0.0346458 -0.0100353 0.0133686 -0.00130913 0.011372
internal_weight=1515.64 1134.04 381.599 706.772 218.577 427.266 202.629 142.088 224.636 325.501 126.388 102.562 82.266 197.89 56.5274 381.27 60.5418 25.068 199.114 281.089 229.068 163.022 65.1743 28.8847 39.526 53.3813 16.1444 136.311 38.4526 30.2236
internal_count=4932 2710 2222 1484 1014 1226 683 517 543 766 325 343 541 495 178 718 166 62 441 546 433 1208 421 163 174 378 104 473 148 106
is_linear=0
shrinkage=0.05


Tree=18
num_leaves=31
num_cat=0
split_feature=19 24 14 4 20 26 4 14 4 4 14 4 0 22 13 4 26 14 11 3 4 14 24 4 14 10 26 1 14 4
split_gain=272.715 43.8209 37.1217 20.1191 16.4129 15.0512 12.6778 12.091 20.4191 15.7758 11.5557 11.3961 10.656 11.7216 8.45719 8.12432 7.38578 7.04185 6.74863 8.41063 10.4581 6.40195 6.28453 6.54118 6.23846 6.1658 8.26784 5.60584 5.7595 5.56866
threshold=1.0000000180025095e-35 1.0000000180025095e-35 0.74900497512437825 0.31250000000000006 1.0000000180025095e-35 0.036398613293960318 0.97916666666666674 0.61019900497512436 0.062500000000000014 0.18750000000000003 0.40796019900497515 0.54861111111111127 1.0000000180025095e-35 1.0000000180025095e-35 1.0000000180025095e-35 0.67361111111111116 0.0066192005419473251 0.56840796019900508 1.0000000180025095e-35 1.0000000180025095e-35 0.68750000000000011 0.84676616915422898 1.0000000180025095e-35 0.88194444444444453 0.36293532338308465 1.0000000180025095e-35 0.064348973472295665 1.0000000180025095e-35 0.51666666666666672 0.020833333333333336
decision_type=2 2 2 2 2 2 2 2 2 2 2 2 2 2 2 2 2 2 2 2 2 2 2 2 2 2 2 2 2 2
left_child=2 7 4 14 22 11 18 8 24 -9 -6 -5 15 -14 -3 -12 -10 -18 -4 21 -21 -20 27 -24 29 -11 -27 -1 -29 -2
right_child=1 3 6 5 10 -7 -8 9 16 25 12 -13 13 -15 -16 -17 17 -19 19 20 -22 -23 23 -25 -26 26 -28 28 -30 -31
leaf_value=-0.046946854084568314 0.033053210379437876 0.035913708455290773 -0.025272165429622559 -0.050754246861093283 -0.029441856391455891 0.034129042684139681 -0.02713677876856076 0.056795204828038161 -0.02606306377399464 0.030301085759314041 -0.0024084725118809821 0.021909299705610695 0.030492986071091795 -0.038010122801896064 0.053365043392161055 -0.058325194294667627 0.013105706515168097 -0.022280075606233688 0.0046309565662684014 0.034837139618842272 -0.026646560485351269 0.035370346181626072 -0.04563169334605191 0.031118865913309136 0.047815437269933654 -0.016850331945253528 0.038413039389898498 -0.043245454914472285 0.035567680866696698 0.010051229635350446
leaf_weight=95.529345333576202 76.230176627635956 101.94598577916622 9.5955624431371671 8.9544661641120928 60.000817894935608 147.58204808831215 22.781770795583725 55.236518129706383 14.45359919965267 88.487592846155167 18.759728454053405 10.798357114195822 31.6004658639431 6.7668100222945204 339.55891142785549 9.1807625070214254 157.45522867143154 14.428233757615088 26.247984230518341 9.3963454663753527 19.605601750314236 50.856282487511635 3.7598363906145078 5.6546830981969833 43.323773264884949 17.873404145240787 9.5353807657957059 3.3410990908741942 3.9677933529019356 42.801011279225349
leaf_count=821 179 229 43 41 425 343 142 101 71 214 84 33 129 39 657 56 496 47 102 28 89 147 29 33 87 61 21 29 26 130
internal_value=0.0223726 0.0346652 -0.0144059 0.0437907 -0.0263248 0.0286585 0.00613216 0.0239038 0.0184376 0.0348406 -0.0137343 -0.0116484 0.000631167 0.0176255 0.049437 -0.022335 0.00704696 0.00999474 0.0129021 0.0166047 -0.00606259 0.0251633 -0.0402012 -0.000490969 0.031357 0.0239378 0.00287492 -0.0437487 -0.000726922 0.0249765
internal_weight=1505.71 1128.66 377.045 608.84 238.561 167.335 138.484 519.825 348.692 171.133 126.309 19.7528 66.3078 38.3673 441.505 27.9405 186.337 171.883 115.702 106.106 29.0019 77.1043 112.253 9.41452 162.355 115.896 27.4088 102.838 7.30889 119.031
internal_count=4932 2710 2222 1303 1671 417 551 1407 1010 397 733 74 308 168 886 140 614 543 409 366 117 249 938 62 396 296 82 876 55 309
is_linear=0
shrinkage=0.05


Tree=19
num_leaves=31
num_cat=0
split_feature=19 17 17 15 5 4 4 4 21 18 13 11 6 10 10 7 4 0 4 11 2 2 15 21 3 3 24 4 4 25
split_gain=247.609 43.7425 34.3469 27.9981 17.8042 21.4693 12.1409 11.114 11.11 9.49025 9.04982 8.80003 10.426 11.4725 8.05561 10.3822 8.67326 7.59756 9.22275 7.20304 7.29598 6.95441 10.9322 8.48164 6.94008 6.67548 6.46479 6.49352 6.33923 10.5337
threshold=1.0000000180025095e-35 1.0000000180025095e-35 1.0000000180025095e-35 0.32987537502884839 1.0000000180025095e-35 0.31250000000000006 0.97916666666666674 0.020833333333333336 1.0000000180025095e-35 1.0000000180025095e-35 1.0000000180025095e-35 1.0000000180025095e-35 1.0000000180025095e-35 1.0000000180025095e-35 1.0000000180025095e-35 1.0000000180025095e-35 0.24305555555555558 1.0000000180025095e-35 0.3263888888888889 1.0000000180025095e-35 1.0000000180025095e-35 1.0000000180025095e-35 0.61737249019155327 1.0000000180025095e-35 1.0000000180025095e-35 1.0000000180025095e-35 1.0000000180025095e-35 0.88194444444444453 0.062500000000000014 1.0000000180025095e-35
decision_type=2 2 2 2 2 2 2 2 2 2 2 2 2 2 2 2 2 2 2 2 2 2 2 2 2 2 2 2 2 2
left_child=2 4 8 7 14 28 19 -3 9 17 -9 -5 -13 -14 15 25 -16 24 -19 20 -4 22 -21 -23 -1 -2 -10 -28 -6 -30
right_child=1 3 6 11 5 -7 -8 10 26 -11 -12 12 13 -15 16 -17 -18 18 -20 21 -22 23 -24 -25 -26 -27 27 -29 29 -31
leaf_value=-0.038117081922113973 0.05736269478456827 0.062390753712959046 -0.056470399305421137 0.0043341936673911459 0.025541785131353419 -0.019951004118571349 -0.028612837256180881 0.027069157115217363 -0.042425099399040586 -0.03854526162105508 0.046412403085837682 -0.0093749677236138144 0.043238821041413737 0.0021203647830069761 0.030517168231289984 0.0054989731133724511 -0.03403948517496734 0.054964243981614896 -0.0029087885974721415 0.00189499203455731 0.0016839436917672731 0.014681405177153259 0.050956841419923897 -0.024982934426344458 0.008866318260292853 0.011758626289506873 -0.044465718950342556 0.033768277640783967 0.020794946979489415 -0.010852881044937035
leaf_weight=22.780781030654907 65.169890508055687 96.657679229974747 6.4158126041293171 47.219147086143494 161.50155580043793 39.246961057186127 24.10282863676548 81.113951653242111 96.166500419378281 30.325822129845619 348.85654060542583 14.280536457896231 86.759087085723877 21.481881782412529 14.531492486596109 15.196745768189428 6.8187210559844962 7.5950621217489234 33.496540494263172 20.644496902823448 19.015747763216496 49.532046660780907 25.069055378437042 17.35152529925108 11.029649026691912 10.132031098008154 3.4969725459814054 5.4538539499044418 75.463414400815964 39.069925159215927
leaf_count=134 136 172 39 140 408 174 154 185 849 243 699 42 187 59 34 44 26 34 176 74 85 158 70 91 56 28 28 31 223 153
internal_value=0.0213949 0.0331015 -0.0138965 0.0408412 0.0204056 0.0142208 0.00336837 0.0465543 -0.0271807 -0.0153931 0.0428462 0.0229178 0.0299463 0.0352182 0.0375146 0.0439968 0.00907517 -0.00556925 0.00872093 0.00915459 -0.0143793 0.0145938 0.0294221 0.00410124 -0.0228321 0.0515266 -0.0386772 0.00130385 0.0191519 0.00995538
internal_weight=1495.98 1123.5 372.477 696.369 427.131 315.282 162.132 526.628 210.345 105.228 429.97 169.741 122.522 108.241 111.849 90.4987 21.3502 74.902 41.0916 138.029 25.4316 112.597 45.7136 66.8836 33.8104 75.3019 105.117 8.95083 276.035 114.533
internal_count=4932 2710 2222 1484 1226 958 671 1056 1551 643 884 428 288 246 268 208 60 400 210 517 124 393 144 249 190 164 908 59 784 376
is_linear=0
shrinkage=0.05


Tree=20
num_leaves=31
num_cat=0
split_feature=19 17 12 4 21 5 4 24 26 4 14 14 26 14 10 7 4 26 24 0 14 22 3 26 14 4 3 4 26 7
split_gain=224.972 40.6846 35.8018 27.2377 22.3249 16.1329 19.43 8.29497 8.78133 8.27995 7.71212 10.8089 7.59903 7.43528 7.26987 9.38847 7.93593 6.89057 7.85751 6.83582 7.38551 10.8654 7.09695 6.3647 15.8775 13.2017 6.02675 5.86994 7.80339 14.1615
threshold=1.0000000180025095e-35 1.0000000180025095e-35 1.0000000180025095e-35 0.18750000000000003 1.0000000180025095e-35 1.0000000180025095e-35 0.31250000000000006 1.0000000180025095e-35 0.053844969126197968 0.74305555555555569 0.36094527363184081 0.73432835820895526 0.064348973472295665 0.85348258706467672 1.0000000180025095e-35 1.0000000180025095e-35 0.24305555555555558 0.062805271623063305 1.0000000180025095e-35 1.0000000180025095e-35 0.74900497512437825 1.0000000180025095e-35 1.0000000180025095e-35 0.02447852576607942 0.25895522388059705 0.28472222222222227 1.0000000180025095e-35 0.020833333333333336 0.046788829489204757 1.0000000180025095e-35
decision_type=2 2 2 2 2 2 2 2 2 2 2 2 2 2 2 2 2 2 2 2 2 2 2 2 2 2 2 2 2 2
left_child=2 5 7 27 19 14 23 -1 -9 17 -6 -12 -11 -14 15 26 -16 18 -5 20 22 -22 -4 24 -7 -25 -2 -3 29 -29
right_child=1 3 4 9 10 6 -8 8 -10 12 11 -13 13 -15 16 -17 -18 -19 -20 -21 21 -23 -24 25 -26 -27 -28 28 -30 -31
leaf_value=-0.036534641576443316 0.05457142391047351 0.060623285839447594 -0.043916145298974807 0.016614722652843011 0.041978036712562748 0.009328090258509612 -0.019145843743095085 -0.027117077962998538 0.035609173805073439 -0.011394992785968297 -0.046985869351883536 -0.0084241083939295119 0.056679731574995888 -0.0016827589007562171 0.029090715800846573 0.0052384478646482682 -0.032813737054994872 0.045534802907881179 0.035593371749705879 0.022836647311684173 0.025688985811124554 -0.028950355948555065 0.012715742617146031 -0.00149923092932912 0.037549561030669559 0.067036800789067971 0.01121492960773232 0.041618029206091534 0.056053012517577584 -0.011687261870181782
leaf_weight=131.04148866981268 65.129878118634224 94.583940833806992 13.579289451241493 100.3993054330349 3.6217338219285002 106.49351774156094 38.903567641973495 13.340916849672796 8.1195212006568891 22.617802917957306 31.249368652701378 43.797991305589676 10.670521542429926 9.8422381132841092 14.530859693884851 15.204431444406508 6.7586600333452216 74.602091103792191 131.21307703852654 69.33323135972023 34.674061670899391 11.226694151759146 8.1436225771903992 67.666901975870132 95.219268515706062 6.8207853138446799 10.140327349305151 136.00887122750282 97.489412978291512 13.125713840126989
leaf_count=1094 136 172 68 255 23 355 174 90 24 79 275 243 20 30 34 44 26 151 284 231 101 41 32 208 206 15 28 277 180 36
internal_value=0.0204743 0.0316369 -0.0133889 0.0391502 -0.000226179 0.0194076 0.0135178 -0.0318448 -0.0026333 0.0291492 -0.0213211 -0.0249535 0.0082508 0.0296678 0.0357014 0.0418545 0.00862348 0.03204 0.0274948 0.0119214 0.000487661 0.011886 -0.0228403 0.0181891 0.0227943 0.00551524 0.0490197 0.0492601 0.0446547 0.0368466
internal_weight=1485.55 1117.42 368.128 690.553 215.626 426.868 315.104 152.502 21.4604 349.345 78.6691 75.0474 43.1306 20.5128 111.764 90.4746 21.2895 306.214 231.612 136.957 67.6237 45.9008 21.7229 276.2 201.713 74.4877 75.2702 341.208 246.624 149.135
internal_count=4932 2710 2222 1484 1014 1226 958 1208 114 819 541 518 129 50 268 208 60 690 539 473 242 142 100 784 561 223 164 665 493 313
is_linear=0
shrinkage=0.05


Tree=21
num_leaves=31
num_cat=0
split_feature=21 20 17 15 12 26 16 15 15 14 14 14 14 7 24 15 26 24 15 26 12 26 14 14 10 16 7 14 26 15
split_gain=162.842 70.7342 37.8749 25.5413 23.4828 14.3891 21.5166 12.2641 10.6675 10.9436 10.6448 9.86656 13.2628 10.4216 8.85584 8.14854 6.69571 6.29169 6.20599 5.51449 6.54414 5.27219 7.71155 5.09421 4.86278 4.55144 6.74808 4.22498 3.95247 3.89571
threshold=1.0000000180025095e-35 1.0000000180025095e-35 1.0000000180025095e-35 0.32987537502884839 1.0000000180025095e-35 0.024141094956545608 1.0000000180025095e-35 0.0006981306254327254 0.011380683129471499 0.70771144278606968 0.73432835820895526 0.76990049751243794 0.68034825870646776 1.0000000180025095e-35 1.0000000180025095e-35 0.89706612047080558 0.053844969126197968 1.0000000180025095e-35 0.15910021924763448 0.0417717588487862 1.0000000180025095e-35 0.068079067547432523 0.76741293532338317 0.39527363184079611 1.0000000180025095e-35 1.0000000180025095e-35 1.0000000180025095e-35 0.90522388059701508 0.046417159378532788 0.83008308331410119
decision_type=2 2 2 2 2 2 2 2 2 2 2 2 2 2 2 2 2 2 2 2 2 2 2 2 2 2 2 2 2 2
left_child=1 2 5 8 14 6 7 -1 -4 -10 17 12 -5 -13 25 21 18 -2 -16 20 -7 22 -12 -19 -8 -3 -27 -23 -21 -24
right_child=10 4 3 11 -6 19 24 -9 9 -11 15 13 -14 -15 16 -17 -18 23 -20 28 -22 27 29 -25 -26 26 -28 -29 -30 -31
leaf_value=0.026284608195528004 -0.04273965877453767 -0.044210372406553872 0.058966424413935598 0.027934879198828949 0.011283547968811553 -0.0015343193919312855 0.037562723746349322 -0.0076867021662167957 0.032696025944554945 0.049691341466003409 0.030047990088846552 0.040061927627389207 -0.013833439663766392 0.0006813898626660082 0.020408087162991227 -0.051031773213845368 0.040396831736099946 0.040679233863977517 -0.051044394979936507 -0.055466284819121969 0.023344792532500391 0.041472671979891997 -0.04665486716462041 -0.027938948098733676 0.014449661445766005 0.013201454862831389 -0.036828524518758302 -0.0050318566308395303 0.0070497196122571645 0.0085218704397436659
leaf_weight=44.027675941586494 92.243657618761063 33.699772007763386 92.461735844612122 36.095846191048622 137.34490901231766 75.176969259977341 165.77190108597279 63.682946294546127 255.69694174826145 166.82404942810535 5.6336639299988773 73.056021273136139 37.918176621198654 22.111106246709824 4.8440793082118052 8.6667247712612134 7.5955832451581946 3.6323884502053243 5.445552296936512 5.3745042234659177 39.39759986102581 9.2448406815528887 12.124275900423525 5.4954352602362633 29.20648330450058 11.122851401567459 14.328744046390057 8.6409108936786634 3.6410855650901794 3.6757781133055678
leaf_count=110 866 281 172 91 473 249 367 267 558 326 30 157 118 62 31 78 20 20 37 30 110 30 79 41 76 72 108 36 17 20
internal_value=0.0196166 0.0252005 0.0302728 0.0375734 -0.00106821 0.0184834 0.0243414 0.00626743 0.0431283 0.0395196 -0.0297179 0.0204809 0.00657071 0.0310665 -0.0230161 -0.00990233 0.00728038 -0.0388608 -0.0181355 0.0040159 0.00710532 8.01729e-05 -0.0161871 0.000194157 0.0342174 -0.0322285 -0.0151029 0.019664 -0.031536 -0.0337776
internal_weight=1474.18 1324.82 1110.44 684.164 214.381 426.279 302.689 107.711 514.983 422.521 149.358 169.181 74.014 95.1671 77.0366 47.9862 17.8852 101.371 10.2896 123.59 114.575 39.3195 21.4337 9.12782 194.978 59.1514 25.4516 17.8858 9.01559 15.8001
internal_count=4932 3732 2710 1484 1022 1226 820 377 1056 884 1200 428 209 219 549 273 88 927 68 406 359 195 129 61 443 461 180 66 47 99
is_linear=0
shrinkage=0.05


Tree=22
num_leaves=31
num_cat=0
split_feature=21 20 24 14 4 15 17 15 14 14 14 13 15 26 26 24 26 4 7 4 2 14 7 4 22 14 22 6 15 14
split_gain=148.658 64.5093 35.3929 19.8896 17.4266 14.2219 11.9865 14.2951 11.9735 10.1857 9.42691 7.92293 7.7585 7.54166 6.61932 6.05862 6.00173 5.79511 5.65627 5.37686 6.91004 5.29148 4.61467 4.58702 10.1592 11.477 4.36688 9.60605 9.15203 8.06581
threshold=1.0000000180025095e-35 1.0000000180025095e-35 1.0000000180025095e-35 0.40796019900497515 0.31250000000000006 0.23779425340410804 1.0000000180025095e-35 0.1663051003923379 0.40223880597014933 0.73432835820895526 0.36492537313432838 1.0000000180025095e-35 0.89706612047080558 0.063293273250354817 0.050269210588139122 1.0000000180025095e-35 0.036398613293960318 0.88194444444444453 1.0000000180025095e-35 0.90972222222222221 1.0000000180025095e-35 0.55547263681592052 1.0000000180025095e-35 0.3263888888888889 1.0000000180025095e-35 0.28880597014925374 1.0000000180025095e-35 1.0000000180025095e-35 0.58243134087237491 0.75497512437810954
decision_type=2 2 2 2 2 2 2 2 2 2 2 2 2 2 2 2 2 2 2 2 2 2 2 2 2 2 2 2 2 2
left_child=1 2 6 23 11 16 8 14 10 15 -1 22 19 -9 -8 -2 -6 -17 -7 20 -11 -13 -4 24 25 -3 -5 29 -29 -28
right_child=9 3 4 26 5 18 7 13 -10 12 -12 21 -14 -15 -16 17 -18 -19 -20 -21 -22 -23 -24 -25 -26 -27 27 28 -30 -31
leaf_value=0.012823610194542027 -0.041998599612724605 -0.052524148720408594 0.034275874810443273 0.012901600515864585 -0.036617564977033383 0.033560322301789659 0.033624808399187273 0.0087450910573175639 -0.01441642601731921 0.013618227319299648 0.046901014952294519 0.037373025635879832 -0.050476979721473358 0.037621182084695552 0.065280846165772385 -0.043761872179126568 0.015600672065227134 0.02998112039638336 0.0077731044231542038 0.016833103932663372 -0.045822880556499551 0.051826094190507654 0.0039224536606418461 -0.037659157777884394 0.052655050887651024 0.029214840955367138 -0.01071117581232392 -0.062084611046195504 -0.0010143322155992142 0.058665920775875291
leaf_weight=217.42153382301331 89.271254576742649 11.597786001861101 84.132035344839096 117.28338808566332 11.99004338681698 117.76502948999405 90.168238341808319 97.133195891976357 36.049465700984001 8.0871151834726334 21.813320100307465 119.406972438097 8.3430841341614705 29.1971275806427 22.261076614260674 3.4236786141991598 8.6213490366935712 5.6933111995458603 27.423389092087746 21.317736521363258 9.8149580657482147 204.61926521360874 15.453761130571364 34.15871550142765 4.4055161625146857 5.6431789323687545 7.6591703817248327 9.032105006277563 16.321179002523422 7.3816187530755997
leaf_count=655 866 103 188 428 51 267 195 263 138 34 54 261 78 64 38 29 22 32 77 104 57 396 41 266 27 29 39 52 61 17
internal_value=0.0187861 0.0240965 0.0289601 -0.00103704 0.0373385 0.0232984 0.0192897 0.0274994 0.0120774 -0.0289344 0.0161339 0.0427542 -0.009529 0.0157012 0.0404571 -0.0380747 -0.0148331 0.000206041 0.0288103 9.58395e-05 -0.0194064 0.0466467 0.0297012 -0.0264417 -0.00763831 -0.025361 0.00803266 -0.00595359 -0.0244906 0.0245602
internal_weight=1462.89 1316.94 1103.46 213.483 589.412 165.8 514.044 238.76 275.284 145.951 239.235 423.612 47.5629 126.33 112.429 98.3882 20.6114 9.11699 145.188 39.2198 17.9021 324.026 99.5858 55.8052 21.6465 17.241 157.677 40.3941 25.3533 15.0408
internal_count=4932 3732 2710 1022 1303 417 1407 560 847 1200 709 886 273 327 233 927 73 61 344 195 91 657 229 425 159 132 597 169 113 56
is_linear=0
shrinkage=0.05


Tree=23
num_leaves=31
num_cat=0
split_feature=21 20 17 4 14 1 4 13 14 15 14 4 26 26 13 24 25 15 4 4 22 14 1 0 26 4 24 4 15 4
split_gain=135.808 58.8167 33.0359 25.6015 18.2487 14.2191 14.4238 9.96866 9.86041 10.3012 9.64104 8.81646 7.94624 7.67555 6.86821 5.78701 5.39097 5.00944 6.15274 4.36801 9.22546 10.8387 4.33664 5.44189 4.32021 8.0316 4.12378 4.01343 4.82099 3.42196
threshold=1.0000000180025095e-35 1.0000000180025095e-35 1.0000000180025095e-35 0.11805555555555557 0.40796019900497515 1.0000000180025095e-35 0.22916666666666669 1.0000000180025095e-35 0.84676616915422898 0.89706612047080558 0.014179104477611922 0.60416666666666674 0.045671690108798083 0.029333881127413221 1.0000000180025095e-35 1.0000000180025095e-35 1.0000000180025095e-35 0.63312370182321731 0.88194444444444453 0.3263888888888889 1.0000000180025095e-35 0.28880597014925374 1.0000000180025095e-35 1.0000000180025095e-35 0.072195923711481688 0.96527777777777779 1.0000000180025095e-35 0.60416666666666674 0.27665878144472655 0.020833333333333336
decision_type=2 2 2 2 2 2 2 2 2 2 2 2 2 2 2 2 2 2 2 2 2 2 2 2 2 2 2 2 2 2
left_child=1 2 5 29 19 6 10 12 15 14 -1 -9 -5 -7 -10 22 -8 18 -17 20 21 -3 -2 -24 25 26 -6 -21 -29 -4
right_child=8 4 3 7 24 13 16 11 9 -11 -12 -13 -14 -15 -16 17 -18 -19 -20 27 -22 -23 23 -25 -26 -27 -28 28 -30 -31
leaf_value=-0.013235498109339825 -0.042332289970966379 -0.051991557790466915 0.056336721153642591 -0.02558495360718719 0.0014187976529426187 0.04975684142798871 0.0018866125023536467 0.034667022823334497 -0.033414459440607079 -0.049936811180830258 0.020873900800422677 0.014609419450149831 0.017420495737969968 0.00090441202694088664 0.025828163857851773 -0.020812479883813108 -0.0276318520652108 -0.045602554364104674 0.056312490498169054 -0.054818484501034208 0.049039005070086843 0.027555213323814189 0.032370790481692072 -0.043121935977367354 0.034798420932831822 -0.038314276187024973 0.01942163314495321 0.00094397011737668295 -0.051144992315668283 0.042260286723581862
leaf_weight=21.579143434762955 90.190159946680069 11.152301378548151 88.726798221468925 11.884218171238897 86.371421247720718 43.093385055661201 60.286266088485718 280.4760961830616 5.4256873056292561 8.0304151028394681 270.67250673472881 71.852855682373047 63.641654059290886 10.135772407054899 19.613745480775833 4.2819981127977353 19.638320684432983 3.4723502695560446 4.1588269025087357 15.689838752150534 4.5633634626865378 5.7415332272648802 4.1847186982631674 3.4137798547744751 12.467109829187391 8.9564175605773908 50.150608167052269 11.591117836534979 5.9906970560550681 154.99561357498169
leaf_count=77 878 103 172 36 357 93 217 608 29 78 717 193 158 35 74 33 87 25 20 131 27 29 31 32 33 43 164 91 44 317
internal_value=0.0179842 0.0230367 0.0276985 0.0346147 -0.00100267 0.0167127 0.0131637 0.0271041 -0.0281655 -0.00391096 0.0183018 0.0306436 0.0103422 0.0407349 0.0120089 -0.0353306 -0.00555643 -0.00181022 0.0185974 -0.0256384 -0.00726853 -0.0246483 -0.039304 -0.00203492 0.00760985 0.00502407 0.00816153 -0.0367816 -0.0183326 0.0476145
internal_weight=1452.43 1309.66 1096.98 671.577 212.674 425.405 372.176 427.855 142.772 33.0698 292.252 352.329 75.5259 53.2292 25.0394 109.702 79.9246 11.9132 8.44083 54.7289 21.4572 16.8938 97.7887 7.5985 157.946 145.478 136.522 33.2717 17.5818 243.722
internal_count=4932 3732 2710 1484 1022 1226 1098 995 1200 181 794 801 194 128 103 1019 304 78 53 425 159 132 941 63 597 564 521 266 135 489
is_linear=0
shrinkage=0.05


Tree=24
num_leaves=31
num_cat=0
split_feature=19 24 12 4 21 15 17 15 14 0 10 14 4 18 7 24 8 10 14 0 14 15 3 14 15 7 14 15 8 15
split_gain=154.171 31.8234 28.1401 16.0957 15.9754 12.7313 10.0114 12.9781 10.6265 16.3083 8.77063 8.59793 11.0797 7.30135 7.13938 6.47454 6.17719 6.11752 11.166 5.93182 6.31477 7.87519 6.5969 5.8378 7.28504 5.67876 5.18548 5.48482 5.13804 5.83189
threshold=1.0000000180025095e-35 1.0000000180025095e-35 1.0000000180025095e-35 0.31250000000000006 1.0000000180025095e-35 0.23779425340410804 1.0000000180025095e-35 0.1663051003923379 0.40223880597014933 1.0000000180025095e-35 1.0000000180025095e-35 0.36492537313432838 0.020833333333333336 1.0000000180025095e-35 1.0000000180025095e-35 1.0000000180025095e-35 1.0000000180025095e-35 1.0000000180025095e-35 0.80024875621890568 1.0000000180025095e-35 0.74900497512437825 0.76352988691437818 1.0000000180025095e-35 0.65298507462686572 0.016582044772674824 1.0000000180025095e-35 0.65298507462686572 0.15387433648742213 1.0000000180025095e-35 0.7907915993537965
decision_type=2 2 2 2 2 2 2 2 2 2 2 2 2 2 2 2 2 2 2 2 2 2 2 2 2 2 2 2 2 2
left_child=2 6 15 13 19 16 8 23 11 -10 25 12 -2 -3 -6 -1 -5 -9 -19 20 22 -22 -4 24 -8 -7 27 -17 29 -16
right_child=1 3 4 5 14 10 7 17 9 -11 -12 -13 -14 -15 28 26 -18 18 -20 -21 21 -23 -24 -25 -26 -27 -28 -29 -30 -31
leaf_value=-0.033408888527412028 0.026640730609171444 0.04094337308773939 -0.043010985336979113 -0.038665073879486568 0.0015856606085956763 0.037582733911714933 0.049420731486839682 0.019124698556930914 0.017417650881498725 -0.048278366852037159 0.0011254100110434102 0.043859920141361627 0.0030314354670666361 0 -0.026677112095887519 0.011357424975009488 0.014136616958588711 -0.044769399568194118 0.020581915067772918 0.02006028652812317 0.022226315017367188 -0.022830449116354248 0.0116611202289146 0.05193347979009702 0.01429540057559163 0.0083605990122840451 0.024084183618134067 -0.051641314903825425 -0.041215940096861414 0.035351073032102914
leaf_weight=118.45967674255371 76.35611355304718 402.54892636835575 13.329739227890968 11.253147840499878 27.140374176204205 94.543701633810997 23.116624712944031 101.62313340604305 18.783235386013985 17.128797128796577 28.392720967531204 21.934815630316734 141.4327075779438 11.43082883954048 9.7413009181618673 5.6019255444407481 9.1963946372270584 10.659754902124407 13.857147499918936 70.262529239058495 33.863277897238731 12.432938173413275 8.2078693062067032 43.570324763655663 42.936091378331184 21.503989577293396 8.983592823147772 6.5864427462220192 32.161448940634727 4.8394907191395751
leaf_count=1094 180 848 68 45 163 206 46 254 67 71 79 54 475 38 85 38 28 39 34 231 97 45 32 84 103 59 28 48 274 19
internal_value=0.0172107 0.026491 -0.0115449 0.0345333 -1.63726e-05 0.0210525 0.0173282 0.0249028 0.0107646 -0.0142406 0.0262789 0.0145749 0.0114156 0.0398271 -0.0186595 -0.0288865 -0.0151344 0.0137362 -0.00827732 0.00998435 -0.000519511 0.00979364 -0.0223609 0.0374663 0.0272166 0.0323282 -0.00299235 -0.0236415 -0.0303064 -0.00482098
internal_weight=1441.88 1090.27 351.611 578.87 211.979 164.89 511.399 235.763 275.636 35.912 144.44 239.724 217.789 413.98 73.8826 139.632 20.4495 126.14 24.5169 138.096 67.8338 46.2962 21.5376 109.623 66.0527 116.048 21.172 12.1884 46.7422 14.5808
internal_count=4932 2710 2222 1303 1014 417 1407 560 847 138 344 709 655 886 541 1208 73 327 73 473 242 142 100 233 149 265 114 86 378 104
is_linear=0
shrinkage=0.05


Tree=25
num_leaves=31
num_cat=0
split_feature=19 24 12 4 21 26 17 4 14 0 4 12 14 4 4 13 14 14 24 26 8 14 26 0 14 22 3 26 13 16
split_gain=140.29 29.4338 26.1959 15.1047 14.5603 10.6252 9.2489 11.7054 9.63588 14.9646 9.07166 8.74788 7.73408 10.0462 7.72776 7.64224 6.77436 9.60251 6.11214 6.64313 5.81391 5.45221 13.9744 5.32506 5.76465 9.44057 6.15857 5.24689 5.15029 4.89335
threshold=1.0000000180025095e-35 1.0000000180025095e-35 1.0000000180025095e-35 0.31250000000000006 1.0000000180025095e-35 0.034239472973378572 1.0000000180025095e-35 0.14583333333333334 0.40223880597014933 1.0000000180025095e-35 0.72916666666666674 1.0000000180025095e-35 0.36492537313432838 0.020833333333333336 0.70138888888888895 1.0000000180025095e-35 0.36094527363184081 0.73432835820895526 1.0000000180025095e-35 0.053844969126197968 1.0000000180025095e-35 0.55547263681592052 0.024886877828054307 1.0000000180025095e-35 0.74900497512437825 1.0000000180025095e-35 1.0000000180025095e-35 0.0417717588487862 1.0000000180025095e-35 1.0000000180025095e-35
decision_type=2 2 2 2 2 2 2 2 2 2 2 2 2 2 2 2 2 2 2 2 2 2 2 2 2 2 2 2 2 2
left_child=2 6 18 15 23 10 8 -8 12 27 -5 -9 13 -2 -13 20 -6 -18 29 -20 -3 22 -17 24 26 -26 -4 -10 -19 -1
right_child=1 3 4 5 16 -7 7 11 9 -11 -12 14 -14 -15 -16 21 17 28 19 -21 -22 -23 -24 -25 25 -27 -28 -29 -30 -31
leaf_value=-0.03981721144117284 0.025373038896077577 0.031444617617502633 -0.041854609038369954 -0.038108150801924257 0.040999635227029291 0.02453933491287465 0.039248089324238178 0.0030184660632150365 0.030823547552546599 -0.046531464465482127 0.033928891192136289 0.034385130325146347 0.041571926186705119 0.0028790549294553623 -0.0048938862668118695 0.04463509106752047 -0.044342297586293572 -0.033714258090000102 -0.025104524856694111 0.029551022470278382 0.00043190779352150527 0.047564054764371921 0.0071644722490772292 0.018958426873064052 0.022018150545978624 -0.028830868970888709 0.011091577039862258 -0.026595702140879609 0.0043659259085710089 -0.016935317041527814
leaf_weight=77.693569965660572 76.216010600328445 78.498025879263878 13.047972649335861 12.548918202519419 3.6303438171744338 146.35861405730247 80.670797318220139 74.134529307484627 14.477637410163881 16.926005288958549 5.4832030534744254 64.433996453881264 22.03719724714756 141.52298206090927 14.935319155454634 79.343968540430069 27.172782570123672 11.287659235298632 12.71699281036854 8.3291121721267682 19.099484845995903 194.95097422599792 37.173677176237106 70.676002383232117 35.173790112137794 11.203735530376433 8.2481588870286942 4.4107279628515235 30.801125280559063 37.809554070234299
leaf_count=774 180 178 68 54 23 349 171 201 43 71 14 141 54 475 47 166 275 78 90 24 51 396 95 231 101 41 32 24 165 320
internal_value=0.0164821 0.0253486 -0.0111127 0.0331323 -3.16964e-05 0.020072 0.0165349 0.0238511 0.0102364 -0.0136074 -0.0153087 0.0155256 0.0138603 0.0108556 0.0269627 0.0383069 -0.017997 -0.0217 -0.0280938 -0.00288821 0.0254922 0.0422118 0.0328857 0.00945897 -0.000520725 0.00927941 -0.0215461 0.0165008 -0.00627606 -0.0325795
internal_weight=1431.01 1083.22 347.791 573.457 211.242 164.391 509.765 234.175 275.591 35.8144 18.0321 153.504 239.776 217.739 79.3693 409.066 72.8919 69.2616 136.549 21.0461 97.5975 311.469 116.518 138.35 67.6737 46.3775 21.2961 18.8884 42.0888 115.503
internal_count=4932 2710 2222 1303 1014 417 1407 560 847 138 68 389 709 655 188 886 541 518 1208 114 229 657 261 473 242 142 100 67 243 1094
is_linear=0
shrinkage=0.05


end of trees

feature_importances:
MonthlyCharges=140
tenure=130
ChargesPerMonth=93
TotalCharges=84
PaymentMethod_Electronic_check=40
InternetService_Fiber_optic=31
PaperlessBilling=30
Contract_One_year=27
StreamingMovies=26
OnlineSecurity=25
Contract_Month-to-month=20
Dependents=16
OnlineBackup=15
TechSupport=15
Contract_Two_year=14
SeniorCitizen=10
StreamingTV=10
InternetService_DSL=9
gender=8
PaymentMethod_Bank_transfer_(automatic)=7
PaymentMethod_Mailed_check=7
Partner=6
MultipleLines=6
InternetService_No=6
PhoneService=3
IsLongTenure=1
HighMonthlyCharge=1

parameters:
[boosting: gbdt]
[objective: binary]
[metric: auc,binary_logloss]
[tree_learner: serial]
[device_type: cpu]
[data_sample_strategy: bagging]
[data: ]
[valid: ]
[num_iterations: 500]
[learning_rate: 0.05]
[num_leaves: 31]
[num_threads: 12]
[seed: 42]
[deterministic: 0]
[force_col_wise: 0]
[force_row_wise: 0]
[histogram_pool_size: -1]
[max_depth: 6]
[min_data_in_leaf: 20]
[min_sum_hessian_in_leaf: 0.001]
[bagging_fraction: 0.8]
[pos_bagging_fraction: 1]
[neg_bagging_fraction: 1]
[bagging_freq: 0]
[bagging_seed: 400]
[bagging_by_query: 0]
[feature_fraction: 0.8]
[feature_fraction_bynode: 1]
[feature_fraction_seed: 30056]
[extra_trees: 0]
[extra_seed: 12879]
[early_stopping_round: 0]
[early_stopping_min_delta: 0]
[first_metric_only: 0]
[max_delta_step: 0]
[lambda_l1: 0.1]
[lambda_l2: 1]
[linear_lambda: 0]
[min_gain_to_split: 0]
[drop_rate: 0.1]
[max_drop: 50]
[skip_drop: 0.5]
[xgboost_dart_mode: 0]
[uniform_drop: 0]
[drop_seed: 17869]
[top_rate: 0.2]
[other_rate: 0.1]
[min_data_per_group: 100]
[max_cat_threshold: 32]
[cat_l2: 10]
[cat_smooth: 10]
[max_cat_to_onehot: 4]
[top_k: 20]
[monotone_constraints: ]
[monotone_constraints_method: basic]
[monotone_penalty: 0]
[feature_contri: ]
[forcedsplits_filename: ]
[refit_decay_rate: 0.9]
[cegb_tradeoff: 1]
[cegb_penalty_split: 0]
[cegb_penalty_feature_lazy: ]
[cegb_penalty_feature_coupled: ]
[path_smooth: 0]
[interaction_constraints: ]
[verbosity: -1]
[saved_feature_importance_type: 0]
[use_quantized_grad: 0]
[num_grad_quant_bins: 4]
[quant_train_renew_leaf: 0]
[stochastic_rounding: 1]
[linear_tree: 0]
[max_bin: 255]
[max_bin_by_feature: ]
[min_data_in_bin: 3]
[bin_construct_sample_cnt: 200000]
[data_random_seed: 175]
[is_enable_sparse: 1]
[enable_bundle: 1]
[use_missing: 1]
[zero_as_missing: 0]
[feature_pre_filter: 1]
[pre_partition: 0]
[two_round: 0]
[header: 0]
[label_column: ]
[weight_column: ]
[group_column: ]
[ignore_column: ]
[categorical_feature: ]
[forcedbins_filename: ]
[precise_float_parser: 0]
[parser_config_file: ]
[objective_seed: 16083]
[num_class: 1]
[is_unbalance: 0]
[scale_pos_weight: 2.76776]
[sigmoid: 1]
[boost_from_average: 1]
[reg_sqrt: 0]
[alpha: 0.9]
[fair_c: 1]
[poisson_max_delta_step: 0.7]
[tweedie_variance_power: 1.5]
[lambdarank_truncation_level: 30]
[lambdarank_norm: 1]
[label_gain: ]
[lambdarank_position_bias_regularization: 0]
[eval_at: ]
[multi_error_top_k: 1]
[auc_mu_weights: ]
[num_machines: 1]
[local_listen_port: 12400]
[time_out: 120]
[machine_list_filename: ]
[machines: ]
[gpu_platform_id: -1]
[gpu_device_id: -1]
[gpu_use_dp: 0]
[num_gpu: 1]

end of parameters

pandas_categorical:[]
